svm_type c_svc
kernel_type rbf
gamma 0.00022639800769753225
nr_class 2
total_sv 34108
rho -65.096691400531881
label 0 1
nr_sv 16759 17349
SV
2500 1641:0.13333333 2209:0.066666667 3513:0.066666667 
2500 4017:0.41666667 
2500 912:0.75 
2500 4036:0.2 
2500 490:0.33333333 1245:0.11111111 1308:0.074074074 2686:0.14814815 2744:0.11111111 2928:0.037037037 
2500 240:0.12 1641:0.08 2204:0.08 2342:0.04 2395:0.04 2611:0.08 4041:0.48 
2500 1543:0.17391304 2419:0.086956522 2529:0.13043478 3153:0.13043478 3169:0.086956522 
2500 55:0.05 490:0.225 689:0.025 733:0.05 1308:0.1 1594:0.05 1667:0.05 3093:0.025 4352:0.025 
2500 1180:0.04 2527:0.16 4217:0.08 
2500 597:0.11111111 1363:0.33333333 2851:0.11111111 2975:0.11111111 3131:0.11111111 
2500 1115:0.052631579 1430:0.052631579 2187:0.052631579 3533:0.052631579 3615:0.39473684 4221:0.052631579 
2500 725:0.071428571 1641:0.071428571 1799:0.071428571 1988:0.071428571 2124:0.071428571 2853:0.28571429 
2500 376:0.10526316 662:0.052631579 1115:0.052631579 2311:0.10526316 4025:0.052631579 4308:0.052631579 
2500 248:0.25 1115:0.05 4408:0.1 
2500 
2500 
2500 
1495.2108111962366 1979:1 2100:0.125 
2500 
2500 1341:0.3 1735:0.1 
2500 1363:0.083333333 1676:0.027777778 1755:0.055555556 3417:0.027777778 3533:0.027777778 
2500 53:0.75 
2500 427:0.13793103 1676:0.034482759 1735:0.068965517 2664:0.13793103 
2500 191:0.30645161 591:0.032258065 637:0.096774194 1141:0.032258065 
2500 397:0.17391304 1118:0.13043478 1641:0.086956522 1676:0.043478261 2581:0.086956522 2860:0.086956522 4197:0.30434783 4217:0.043478261 
2500 1676:0.052631579 
2500 
2500 3129:0.33333333 
2500 404:0.0625 
2500 146:0.5 486:0.071428571 1128:0.071428571 2816:0.14285714 4330:0.14285714 
2500 271:0.14285714 
2500 
2500 537:0.029411765 689:0.029411765 1443:0.088235294 2240:0.20588235 3774:0.029411765 4352:0.029411765 
2500 1308:0.074074074 1676:0.037037037 2433:1 2835:0.14814815 3093:0.037037037 
415.17662890285737 939:0.058823529 1688:0.058823529 1712:0.058823529 1828:0.11764706 2124:0.058823529 2162:0.76470588 4352:0.058823529 
2500 439:0.10344828 1641:0.034482759 1676:0.034482759 2024:0.034482759 2993:0.13793103 3576:0.051724138 
2500 437:0.16666667 537:0.16666667 2654:0.33333333 
2500 
2500 2207:0.2 
2500 3843:0.08 3991:0.12 4353:0.08 
2500 330:0.04 1641:0.04 1922:0.16 3535:0.32 3721:0.08 
2500 2494:0.22222222 4347:0.11111111 
2500 
2500 2276:0.33333333 3721:0.11111111 4017:0.13888889 4189:0.61111111 
2500 1194:0.066666667 1308:0.066666667 1544:0.033333333 1633:0.066666667 1641:0.033333333 1676:0.033333333 1809:0.033333333 1991:0.066666667 3193:0.1 3780:0.1 3909:0.1 
2500 99:0.5 
2500 2124:0.076923077 4226:0.30769231 
2500 
2500 2838:0.44444444 
2500 1676:0.033333333 1760:0.033333333 3174:0.2 3565:0.11111111 4027:0.1 4206:0.033333333 4302:0.1 
2500 296:0.076923077 326:0.38461538 4276:0.23076923 
2500 
2500 1128:0.041666667 2294:0.58333333 3402:0.125 4179:0.125 
2500 2441:0.074074074 2523:0.074074074 3093:0.037037037 
2500 843:0.22222222 2124:0.11111111 3866:0.11111111 
2500 3093:0.5 
2500 
2500 148:0.070175439 843:0.052631579 2595:1 2742:0.10526316 
2500 220:0.023809524 390:0.047619048 435:0.11904762 1209:0.047619048 1308:0.095238095 1430:0.023809524 2100:0.023809524 2102:0.16666667 2315:0.071428571 2748:0.071428571 2958:0.11904762 3480:0.047619048 4310:0.071428571 4398:0.19047619 
2500 2263:0.75 2392:0.25 3597:0.5 
2500 
2500 1641:0.047619048 2124:0.047619048 3015:0.14285714 3991:0.14285714 
2500 3480:0.28571429 
2500 
2500 733:0.5 
2500 693:0.055555556 961:0.22222222 1670:0.055555556 1676:0.055555556 2124:0.055555556 3093:0.11111111 
2500 
2500 597:0.025641026 1676:0.025641026 1976:0.051282051 2573:0.025641026 2748:0.076923077 3043:0.051282051 4261:0.1025641 
1366.7253103137998 1988:0.25 2414:0.5 2557:0.75 
2500 2772:0.44444444 
2500 1115:0.041666667 1308:0.083333333 1514:0.041666667 1641:0.041666667 2124:0.041666667 2851:0.083333333 
2500 1141:0.05 1676:0.05 
2500 565:0.2 
2500 1194:0.33333333 1881:0.16666667 
2500 24:0.0625 740:0.083333333 1676:0.041666667 2968:0.083333333 4147:0.083333333 
2500 
2319.824948069162 14:0.08 433:0.08 693:0.04 1470:0.08 1676:0.08 2234:0.36 4029:0.24 
2500 2190:0.5 
863.34041034333052 836:0.14285714 1109:0.28571429 1544:0.071428571 1842:0.071428571 1949:0.28571429 1988:0.14285714 2024:0.071428571 3856:1 3909:0.21428571 
2500 1194:0.25 3697:0.5 
2500 1735:0.0625 2124:0.0625 3297:0.125 3347:1 3771:0.0625 4206:0.125 
2500 688:0.31578947 1676:0.052631579 2124:0.052631579 2622:0.052631579 2633:0.10526316 
2500 
2500 1115:0.058823529 1641:0.058823529 2360:0.23529412 
2500 1633:0.2 2494:0.2 3597:0.2 
2500 1676:0.038461538 2073:0.038461538 2409:0.34615385 2613:0.076923077 2928:0.038461538 3179:0.038461538 4164:0.11538462 
2500 3924:0.5 
2500 1605:0.15 2892:0.05 3146:0.1 4036:0.05 4184:0.05 4352:0.05 
2500 1194:0.083333333 1735:0.083333333 2024:0.041666667 2317:0.041666667 3146:0.083333333 3533:0.041666667 3826:0.083333333 3974:0.083333333 3976:0.041666667 
2500 1843:0.57142857 2112:0.14285714 
2500 146:0.30434783 2024:0.043478261 4207:0.30434783 
2500 853:0.33333333 
2500 725:0.125 
2500 2001:0.14285714 
2500 1633:0.095238095 1676:0.047619048 
2500 
2500 931:0.25641026 1320:0.076923077 2544:0.051282051 2772:0.1025641 3092:0.17948718 3290:0.051282051 3480:0.051282051 3798:0.051282051 3994:0.076923077 
1087.1114174826419 1641:0.055555556 2073:0.055555556 2100:0.055555556 2637:0.8 
2500 1273:0.043478261 1676:0.043478261 2452:0.086956522 3909:0.13043478 
2500 2315:0.3 2527:0.1 
2500 1762:0.875 2975:0.125 3049:0.375 
2500 996:0.125 3043:0.125 4056:0.5 4060:0.125 
2500 537:0.035714286 996:0.035714286 2124:0.071428571 
2500 3248:1 
2500 1676:0.052631579 1731:0.052631579 2124:0.052631579 2581:0.052631579 2594:0.052631579 
2500 1115:0.060606061 2221:0.060606061 2945:0.060606061 3688:0.42424242 4330:0.060606061 4415:0.12121212 
2500 939:0.42857143 1886:0.57142857 2668:0.28571429 
2500 3415:0.56 3538:0.2 
2500 783:0.125 
2500 528:0.19047619 1507:0.095238095 3758:0.095238095 
2500 321:0.027027027 939:0.054054054 1364:0.027027027 1544:0.027027027 2960:0.054054054 3482:0.10810811 
2500 278:0.052631579 1641:0.052631579 1676:0.052631579 1731:0.052631579 1804:0.052631579 4221:0.052631579 
2500 968:0.09375 2835:0.125 3689:0.09375 3772:0.0625 3837:0.03125 3884:1 4071:0.0625 4352:0.03125 4395:0.15625 
2500 530:0.11111111 1115:0.037037037 1544:0.037037037 1641:0.037037037 2124:0.037037037 2264:0.074074074 3652:0.27777778 3731:0.074074074 3837:0.037037037 3953:0.11111111 
2500 
2500 513:0.13333333 1641:0.066666667 2100:0.066666667 4066:0.13333333 
2500 1809:0.25 2988:0.5 4060:0.25 
2500 843:0.04 1676:0.04 3236:0.08 3682:0.08 3845:0.08 
2500 1676:0.025641026 3093:0.025641026 4331:0.1025641 
2500 887:0.17647059 1308:0.11764706 2073:0.058823529 2100:0.058823529 4176:0.25490196 
2500 1115:0.037037037 1988:0.037037037 2100:0.037037037 3987:0.037037037 4206:0.037037037 
2500 72:0.13636364 1094:0.090909091 2073:0.045454545 2672:0.045454545 3145:0.045454545 3146:0.090909091 3237:0.090909091 3779:0.045454545 3866:0.045454545 3909:0.13636364 4054:0.045454545 
2500 
2500 1181:0.068965517 1514:0.034482759 1676:0.034482759 1712:0.034482759 2124:0.034482759 2851:0.034482759 
2500 3146:0.066666667 3410:0.066666667 
2500 55:0.058823529 1115:0.029411765 1308:0.058823529 1430:0.029411765 2564:0.11764706 3015:0.029411765 3140:0.088235294 3532:0.029411765 
2500 
2500 1868:0.035714286 3377:0.14285714 3532:0.035714286 4217:0.035714286 
2500 
2500 381:0.090909091 2100:0.03030303 2364:0.060606061 3210:0.15151515 3750:0.24242424 3978:0.060606061 
2500 1976:0.11764706 3682:0.11764706 
2500 94:0.16666667 1688:0.083333333 2100:0.083333333 3370:0.16666667 3597:0.16666667 
478.51175591892292 240:0.068181818 349:0.13636364 1308:0.045454545 1712:0.022727273 1735:0.022727273 1988:0.022727273 2204:0.045454545 2315:0.068181818 2321:0.068181818 2414:0.045454545 3703:0.11363636 3784:0.5 4352:0.022727273 
2500 662:0.5 
2500 
2500 33:0.1 1094:0.1 1367:0.1 1430:0.05 1676:0.05 2748:0.15 4058:0.1 
2500 1439:0.14117647 4352:0.058823529 
2500 852:0.043478261 1366:0.086956522 2691:0.043478261 2816:0.086956522 
2500 220:0.041666667 1281:0.16666667 2149:0.083333333 4352:0.041666667 
2500 318:0.083333333 2001:0.083333333 3122:0.083333333 3481:0.25 4352:0.083333333 
2500 74:1 392:1 4038:0.7 
2500 
2500 1201:0.13043478 1273:0.086956522 1430:0.043478261 1676:0.043478261 2024:0.043478261 2905:0.043478261 
2500 271:0.083333333 1641:0.083333333 1891:0.083333333 
2500 1421:0.13333333 2654:0.066666667 3093:0.066666667 3174:0.2 4352:0.066666667 
2500 2024:0.33333333 
2500 2100:0.125 
2500 413:0.2 1641:0.033333333 2124:0.033333333 2434:0.13333333 3846:0.066666667 4211:0.2 
2500 1676:0.083333333 2581:0.083333333 3093:0.083333333 
2500 1367:0.086956522 2691:0.043478261 4352:0.086956522 4395:0.2173913 
2500 939:0.052631579 991:0.15789474 1281:0.21052632 1430:0.052631579 2124:0.052631579 
2500 2529:0.27272727 4101:0.54545455 
2500 3772:0.36363636 
2500 678:0.1 1352:0.1 1364:0.05 1676:0.05 2651:0.05 2668:0.1 
1976.1611708268442 283:0.36363636 567:0.03030303 939:0.060606061 1115:0.03030303 2382:0.34848485 2748:0.090909091 3131:0.03030303 
2500 1194:0.28571429 
2500 233:0.8125 278:0.0625 1641:0.0625 2124:0.0625 3682:0.125 4060:0.0625 4281:0.0625 
2500 2149:0.22222222 3077:0.16111111 3557:0.44444444 4352:0.11111111 
2500 1507:0.08 1676:0.04 2256:0.08 2735:0.08 3156:0.12 3167:0.04 3425:0.08 3953:0.12 
2500 981:0.17647059 1641:0.058823529 2256:0.11764706 2892:0.058823529 
2500 
2500 1115:0.047619048 2770:0.19047619 3123:0.19047619 3682:0.095238095 
2500 
2500 1663:0.059800664 1680:0.023255814 2303:0.046511628 2544:0.046511628 2938:0.046511628 3290:0.046511628 3565:0.07751938 4027:0.20930233 4352:0.023255814 4389:0.25581395 
2500 644:0.1 1137:0.033333333 1273:0.033333333 2342:0.033333333 3145:0.033333333 
2500 939:0.047619048 1352:0.095238095 1621:0.047619048 1676:0.047619048 2159:0.14285714 3987:0.047619048 
2500 388:0.09375 1641:0.03125 1676:0.03125 2268:0.09375 3941:0.03125 
2500 1325:0.090909091 2419:0.18181818 3821:0.090909091 
2500 355:0.5 
2500 
2500 675:0.078947368 783:0.052631579 1292:0.026315789 1641:0.026315789 1771:0.078947368 2100:0.026315789 3077:0.038157895 4352:0.026315789 
2500 1070:0.065217391 1544:0.043478261 4036:0.043478261 
2500 996:0.2 
2500 895:0.083333333 1621:0.083333333 2124:0.083333333 
2500 725:0.033333333 1128:0.033333333 1988:0.066666667 2118:0.1 2341:0.066666667 2441:0.066666667 3193:0.1 3381:0.066666667 4256:0.066666667 
2500 537:0.0625 690:0.1875 2124:0.0625 2619:0.125 4386:0.28125 
2500 292:0.066666667 693:0.033333333 826:0.066666667 1382:0.33333333 1676:0.033333333 1804:0.033333333 2124:0.033333333 2651:0.033333333 2860:0.066666667 
2500 1218:0.125 1514:0.05 1641:0.1 1676:0.05 4308:0.05 
2500 1735:0.125 2831:0.25 
2500 
2500 2124:0.058823529 2380:0.29411765 2905:0.058823529 3093:0.058823529 4254:0.058823529 
1484.430830869906 1604:0.27777778 1610:0.11111111 1676:0.055555556 
645.13335086254256 72:0.11111111 347:0.33333333 1589:0.11111111 2100:0.11111111 3748:0.22222222 3826:0.22222222 
2500 
2500 978:0.068965517 1641:0.034482759 1676:0.034482759 1713:0.13793103 3105:0.051724138 3168:0.20689655 3640:0.034482759 3941:0.034482759 4107:0.13793103 
2500 1988:0.11111111 2742:0.22222222 
2500 1115:0.0625 1141:0.0625 1514:0.125 1517:1 2100:0.0625 2743:0.0625 
2500 895:0.05 1229:0.1 3682:0.1 
2500 1676:0.058823529 2666:0.23529412 2753:0.35294118 
2500 99:0.5 1939:0.25 
2168.670297409757 770:0.1 1128:0.05 1194:0.3 1711:0.25 1851:0.1 2445:0.05 3597:0.1 3786:0.1 
2500 2573:0.043478261 3703:0.2173913 4200:0.086956522 4206:0.043478261 
2500 1115:0.076923077 1641:0.076923077 
2500 490:0.52941176 921:0.29411765 1610:0.11764706 2187:0.058823529 2315:0.17647059 2691:0.058823529 3093:0.058823529 
2500 
2500 2573:0.2 
2500 37:0.33333333 1804:0.11111111 1809:0.11111111 3145:0.11111111 
2500 939:0.045454545 1676:0.045454545 2804:0.18181818 4308:0.045454545 
2500 189:0.1 1544:0.05 1799:0.05 1971:0.3 2124:0.05 
2500 3779:0.11111111 3950:0.22222222 
2500 289:0.083333333 1115:0.027777778 1208:0.055555556 1706:0.13888889 2001:0.027777778 2571:0.027777778 2648:0.083333333 2680:0.027777778 3567:0.027777778 3755:0.027777778 3837:0.027777778 3891:0.055555556 
2500 1535:0.42857143 3597:0.28571429 
2500 330:0.055555556 693:0.055555556 1898:0.11111111 2112:0.055555556 
2500 204:0.16129032 1128:0.032258065 1676:0.032258065 2693:0.12903226 4064:0.064516129 
2500 
2500 2704:0.058823529 3093:0.058823529 
2500 2410:0.125 
2500 1544:0.16666667 2160:0.16666667 
2500 
2500 2068:1 2142:0.28571429 2716:0.071428571 2742:0.14285714 3657:0.57142857 4060:0.071428571 
2500 1128:0.1 1273:0.1 3883:0.2 
2500 
2500 1676:0.058823529 1688:0.058823529 3564:0.11764706 
2500 146:0.53846154 852:0.076923077 1164:0.076923077 1735:0.15384615 2651:0.076923077 3924:0.15384615 
2500 449:0.66666667 2529:0.5 
2500 843:0.052631579 1137:0.052631579 
2500 549:0.055555556 824:0.092592593 1128:0.027777778 1323:0.16666667 1641:0.027777778 1676:0.027777778 1922:0.055555556 2176:0.25 3093:0.027777778 3418:0.11111111 3748:0.055555556 3909:0.083333333 
2500 296:0.125 2286:0.125 
2500 1569:0.27586207 1671:0.10344828 2573:0.034482759 3905:0.068965517 
2500 1716:0.27272727 2680:0.045454545 3597:0.090909091 3719:0.18181818 
2500 1641:0.03030303 2100:0.03030303 2544:0.060606061 2945:0.060606061 3089:0.060606061 3640:0.03030303 3909:0.18181818 
2500 296:0.043478261 1676:0.043478261 2982:0.043478261 
2500 376:0.03030303 486:0.03030303 635:0.12121212 2341:0.060606061 2581:0.060606061 3370:0.03030303 3779:0.03030303 
2500 553:0.4137931 1712:0.068965517 3049:0.10344828 3708:0.068965517 4352:0.034482759 
2500 94:0.125 2166:0.3125 3400:0.25 3401:0.1875 
2500 1731:0.083333333 2124:0.083333333 3293:0.083333333 
2500 
2500 1523:0.19230769 3552:0.076923077 3806:0.38461538 4352:0.038461538 
2500 2066:0.11111111 2219:0.092592593 2945:0.22222222 3774:0.055555556 
2500 626:0.2 1140:0.1 1676:0.1 1883:0.1 
2500 1441:0.071428571 1641:0.071428571 1988:0.14285714 2892:0.071428571 3597:0.14285714 
1786.8843040751976 693:0.045454545 719:1 2743:0.045454545 3491:1 3617:0.090909091 
2500 
2500 72:0.1 4415:0.4 
2500 11:0.068965517 535:0.068965517 3093:0.034482759 3441:0.034482759 3640:0.034482759 4352:0.034482759 
2500 1115:0.11111111 
2500 278:0.14285714 
2500 72:0.1 
2500 404:0.066666667 1958:0.13333333 2851:0.066666667 3655:0.23333333 
2500 
512.90072588196767 449:0.24242424 1257:0.075757576 1641:0.03030303 1676:0.03030303 1712:0.03030303 2054:0.060606061 2072:0.060606061 2614:1 2716:0.03030303 3609:0.03030303 3870:0.03030303 4352:0.03030303 
2500 1128:0.038461538 1194:0.15384615 2453:0.076923077 2851:0.038461538 3946:0.26923077 3964:0.076923077 
2500 2124:0.14285714 
2500 1137:0.034482759 1641:0.034482759 2124:0.034482759 3179:0.034482759 4286:0.31034483 
2500 
2500 2845:0.14285714 
2500 2054:0.071428571 2392:0.035714286 3153:0.10714286 
2500 
2500 306:0.048387097 1666:0.032258065 1676:0.064516129 1782:0.032258065 3402:0.064516129 4308:0.032258065 
2500 
2500 
2500 513:0.2 993:0.6 1641:0.05 2851:0.05 3832:0.1 4036:0.05 
2500 853:0.027777778 1273:0.027777778 1366:0.055555556 2124:0.027777778 2831:0.055555556 3208:0.11111111 3552:0.027777778 
2500 813:0.38461538 2529:0.23076923 2612:0.61538462 2742:0.15384615 3441:0.076923077 
2500 720:0.16666667 1641:0.041666667 3941:0.041666667 
2500 
2500 324:0.055555556 413:0.16666667 1115:0.027777778 1430:0.055555556 1842:0.027777778 2024:0.027777778 3635:0.027777778 3755:0.055555556 3914:0.083333333 
2500 55:0.16666667 521:0.25 611:0.25 1883:0.083333333 2735:0.33333333 3994:0.25 
2500 294:0.10526316 1035:0.078947368 1273:0.026315789 1680:0.026315789 1988:0.026315789 2341:0.052631579 2851:0.026315789 2892:0.052631579 3043:0.026315789 4293:0.026315789 
2500 306:0.13636364 1735:0.090909091 2563:0.45454545 3597:0.18181818 
2500 1137:0.071428571 1641:0.071428571 1676:0.071428571 4392:0.42857143 
2500 1589:0.037037037 2100:0.074074074 2341:0.074074074 3826:0.14814815 
2500 
2500 376:0.037037037 1688:0.037037037 3837:0.037037037 4022:0.092592593 
2500 
2500 
2500 835:0.23076923 1273:0.076923077 2100:0.076923077 2470:0.15384615 
2500 1441:0.03125 1641:0.03125 1868:0.0625 1970:0.125 2744:0.1875 4099:0.09375 4187:0.1875 
2500 292:0.11764706 1115:0.058823529 2691:0.058823529 3043:0.058823529 3356:0.35294118 
2500 72:0.05 1105:0.15 1349:0.1 1676:0.05 2074:0.2 2221:0.1 2445:0.05 
2500 2668:0.076923077 3322:0.15384615 3837:0.038461538 3989:0.038461538 
2500 
2500 2660:0.45454545 3174:0.54545455 4232:0.90909091 
2500 820:0.5 895:0.25 1688:0.25 
2500 11:0.4 417:0.2 2707:0.4 2851:0.2 
2500 1641:0.058823529 2622:0.058823529 3274:0.35294118 
2500 964:0.058823529 1856:0.058823529 3093:0.11764706 
2500 92:0.6 182:0.26666667 187:0.2 1128:0.13333333 2860:0.13333333 3210:0.33333333 
2500 635:0.4 2945:0.4 
2500 1641:0.2 2581:0.1 
2500 1439:0.21818182 1486:0.40909091 2392:0.090909091 3200:0.36363636 4357:0.090909091 
2500 72:0.025 2594:0.025 2724:0.025 2840:0.075 3799:0.1 4104:0.025 4302:0.075 
2500 72:0.034482759 1641:0.068965517 2124:0.034482759 3694:0.48275862 
2500 964:0.14285714 1804:0.14285714 
2500 1820:0.66666667 
2500 
2500 
2500 1115:0.027777778 1308:0.055555556 1641:0.027777778 1676:0.027777778 1881:0.027777778 1891:0.027777778 2231:0.22222222 2983:0.18055556 3894:0.027777778 
2500 1468:0.1 2742:0.4 3093:0.1 3976:0.1 
2500 1163:1 1641:0.11764706 
2500 733:0.11764706 2544:0.11764706 2610:0.17647059 3093:0.058823529 
2500 148:0.088888889 1544:0.066666667 3798:0.13333333 4060:0.066666667 4352:0.066666667 
2500 1526:0.21052632 2722:0.21052632 
2500 1592:1 
2500 11:0.083333333 1712:0.083333333 
2500 849:0.055555556 1273:0.055555556 1641:0.055555556 2100:0.055555556 2597:0.11111111 3093:0.11111111 3290:0.11111111 3756:0.11111111 
2500 
2500 2636:1 
2500 1731:0.043478261 2291:0.13043478 2339:0.13043478 2977:0.086956522 4040:0.043478261 
2500 
2500 397:0.13333333 1115:0.033333333 2410:0.033333333 2742:0.13333333 3419:0.13333333 
2500 
2500 
2500 4293:0.33333333 
2500 94:0.08 207:0.04 1194:0.08 2343:0.12 2392:0.04 2581:0.04 2633:0.08 3071:0.08 3295:0.04 3826:0.08 4352:0.04 
2500 981:0.33333333 1976:0.22222222 
2500 94:0.11764706 849:0.058823529 964:0.058823529 981:0.17647059 1676:0.058823529 1799:0.058823529 3146:0.11764706 3567:0.058823529 4223:0.058823529 
2500 3402:0.25 
2500 72:0.052631579 682:0.42105263 2654:0.052631579 
2500 433:0.064516129 537:0.032258065 1194:0.12903226 1366:0.12903226 1641:0.096774194 1676:0.032258065 1688:0.032258065 2124:0.032258065 2392:0.064516129 2654:0.032258065 2813:0.096774194 3153:0.096774194 3421:0.064516129 4254:0.032258065 4359:0.19354839 
2500 537:0.05 690:0.15 1908:0.25 3280:1 3719:0.1 
2500 
2500 939:0.055555556 1641:0.055555556 1676:0.055555556 2124:0.055555556 2742:0.11111111 
2500 
2500 776:0.13333333 2975:0.066666667 
2500 537:0.038461538 1292:0.038461538 1448:0.038461538 1676:0.038461538 1735:0.038461538 2860:0.076923077 3480:0.15384615 
2500 1988:0.08 3750:0.32 
2500 1641:0.03125 2124:0.0625 2452:0.125 
2500 
2500 110:0.11764706 2654:0.058823529 3719:0.11764706 
2500 110:0.10526316 527:0.10526316 1115:0.052631579 2001:0.052631579 2100:0.052631579 2342:0.052631579 2938:0.10526316 3179:0.052631579 
2500 2441:0.19230769 
2500 1443:0.1 1688:0.033333333 2452:0.066666667 
2500 1641:0.086956522 2100:0.043478261 2124:0.043478261 2619:0.17391304 3295:0.043478261 
2500 64:0.071428571 72:0.035714286 1641:0.071428571 2395:0.035714286 2529:0.10714286 2654:0.10714286 2680:0.035714286 3421:0.071428571 3837:0.071428571 
2500 1229:0.18181818 
2210.8123887186443 433:0.068965517 513:0.068965517 1308:0.20689655 1499:0.31034483 1676:0.034482759 2753:0.4137931 3093:0.034482759 3721:0.068965517 4206:0.034482759 4293:0.034482759 4395:0.17241379 
2500 1292:0.083333333 1666:0.083333333 2054:0.16666667 4352:0.083333333 
2500 220:0.025641026 1891:0.025641026 2450:0.17948718 
2500 1828:0.33333333 2441:0.16666667 
2500 
2500 220:0.027777778 679:0.11111111 1988:0.027777778 2124:0.027777778 2790:0.027777778 2997:0.13888889 3195:0.16666667 3410:0.055555556 4352:0.027777778 
2500 278:0.03125 1712:0.03125 
2500 99:0.66666667 3129:0.33333333 
2500 1735:0.14285714 3576:0.21428571 4347:0.14285714 
2500 2124:0.11111111 
2500 433:0.097560976 1563:0.048780488 1676:0.024390244 1735:0.048780488 2470:0.097560976 2544:0.048780488 2651:0.024390244 3421:0.048780488 
2500 968:0.45 2342:0.05 2577:0.15 
2500 460:0.38888889 673:0.33333333 1292:0.083333333 1641:0.083333333 1676:0.083333333 
2500 
2500 72:0.055555556 278:0.055555556 1292:0.055555556 1366:0.11111111 1943:0.11111111 3410:0.11111111 4206:0.055555556 
2500 11:0.125 
2500 5:1 
2500 1307:0.13333333 1809:0.033333333 1924:0.1 2742:0.13333333 2867:0.43333333 3290:0.066666667 3370:0.033333333 3523:0.066666667 
2500 313:0.11111111 3513:0.11111111 4022:0.27777778 
2500 618:0.16 632:0.08 1141:0.04 1310:0.08 1676:0.04 2651:0.04 3077:0.058 4268:0.04 
2500 783:0.051282051 818:0.068376068 2066:0.025641026 2944:0.82051282 2985:0.48717949 3237:0.051282051 4226:0.1025641 
2500 1430:0.027777778 1514:0.027777778 2282:0.16666667 2544:0.055555556 3870:0.027777778 
2500 2396:0.2 3709:0.2 4206:0.2 
2500 1272:0.13157895 1676:0.052631579 3093:0.052631579 3909:0.15789474 
2500 
2162.827725989418 285:1 2149:0.11764706 2704:0.058823529 3288:0.17647059 4352:0.058823529 
2500 1115:0.045454545 1213:0.090909091 2299:0.090909091 3040:0.045454545 3883:0.090909091 
2500 
2500 655:0.12 1569:0.32 1641:0.04 1988:0.04 
2500 1363:0.27272727 2573:0.090909091 3116:0.090909091 
2500 
2500 689:0.060606061 744:0.060606061 1275:0.060606061 3208:0.060606061 
1355.9834875294212 1115:0.090909091 1590:1 2719:0.36363636 
2500 1361:0.56 1641:0.12 1757:0.08 3774:0.08 3846:0.08 4352:0.04 
2500 330:0.090909091 964:0.090909091 1735:0.090909091 3015:0.090909091 
2500 
2500 417:0.037037037 912:0.11111111 1364:0.074074074 2563:0.18518519 2742:0.074074074 3226:0.037037037 4198:0.2962963 4267:0.11111111 
2500 427:0.125 2399:0.03125 2461:0.125 2854:0.25 3297:0.0625 3532:0.03125 3991:0.09375 4310:0.09375 
2500 472:1 
2500 294:0.20689655 981:0.10344828 1093:0.034482759 1676:0.034482759 1924:0.10344828 2573:0.034482759 3043:0.034482759 3370:0.034482759 3826:0.068965517 
2500 1186:0.31034483 1676:0.034482759 2336:0.20689655 3025:0.10344828 4114:0.086206897 
2500 1514:0.071428571 1731:0.071428571 2451:0.14285714 3567:0.071428571 
2500 72:0.0625 597:0.0625 4004:0.25 4408:0.125 
2500 49:0.42857143 
2500 
2500 1641:0.064516129 2073:0.032258065 2124:0.032258065 3362:0.032258065 3421:0.064516129 3637:0.12903226 3733:0.064516129 4352:0.064516129 
2500 486:0.032258065 1109:0.12903226 1415:0.096774194 1441:0.032258065 2716:0.064516129 2742:0.064516129 2851:0.032258065 3043:0.032258065 3976:0.032258065 4352:0.032258065 
2500 240:0.15 1958:0.2 2073:0.05 3093:0.05 3290:0.1 
2500 2975:0.14285714 3174:0.42857143 3894:0.14285714 
2500 2391:0.095238095 
2500 
2500 1187:0.19444444 1315:0.19444444 1641:0.055555556 2341:0.055555556 2691:0.027777778 4321:0.027777778 4352:0.027777778 
2500 1676:0.041666667 1988:0.041666667 2544:0.083333333 3478:0.125 
2500 294:0.10526316 295:0.31578947 1489:0.10526316 3826:0.10526316 
2500 2149:0.22222222 
2500 1115:0.076923077 3837:0.076923077 
2500 1194:0.08 1735:0.04 2100:0.04 2256:0.08 3047:0.08 3976:0.08 4054:0.04 
2500 1641:0.035714286 3897:0.095238095 4058:0.071428571 
2500 422:0.21052632 591:0.052631579 1641:0.052631579 4083:0.10526316 4352:0.052631579 
2500 2124:0.125 2299:0.25 
2500 486:0.071428571 724:0.071428571 1128:0.071428571 2544:0.14285714 2917:0.21428571 
2500 2062:0.33333333 2356:0.38888889 2654:0.083333333 3146:0.083333333 
2500 
2500 565:0.028571429 885:0.17142857 1194:0.057142857 1430:0.057142857 1589:0.028571429 1676:0.028571429 1735:0.028571429 2054:0.057142857 2445:0.028571429 2594:0.028571429 3760:0.2 3964:0.22857143 4034:0.028571429 
2500 2011:0.16666667 
2500 1868:0.5 
2500 1641:0.066666667 2124:0.066666667 2441:0.13333333 
2500 2306:0.32142857 2693:0.28571429 3226:0.071428571 
2500 939:0.2 
2500 2001:0.076923077 4352:0.076923077 
2500 
2500 849:0.074074074 1032:0.037037037 1731:0.037037037 2619:0.074074074 2654:0.037037037 
2500 3402:0.25 
2500 55:0.064516129 298:0.16129032 486:0.032258065 849:0.032258065 1633:0.064516129 1676:0.032258065 2984:0.032258065 4083:0.12903226 
2500 72:0.08 1430:0.04 1641:0.04 1676:0.04 2573:0.04 
2500 3093:0.25 3290:0.5 4302:0.75 
2500 1771:0.33333333 2742:0.22222222 3682:0.22222222 
2500 275:0.10526316 1079:0.26315789 1610:0.052631579 1976:0.052631579 3489:0.23684211 4036:0.026315789 4352:0.026315789 
2500 1013:0.071428571 1449:0.28571429 1783:0.071428571 1809:0.071428571 4210:0.14285714 
2500 2441:0.25 2851:0.25 
2500 1186:0.32142857 1229:0.071428571 1676:0.035714286 1809:0.035714286 2446:0.35714286 2651:0.035714286 2945:0.071428571 3538:0.035714286 3771:0.071428571 3989:0.035714286 
2500 330:0.04 542:0.08 1676:0.04 2012:0.64 2299:0.08 
2500 1115:0.14285714 2311:0.14285714 2523:0.28571429 
2500 
2500 376:0.027777778 1231:0.13888889 1676:0.027777778 4293:0.027777778 
2500 1793:0.25 4308:0.0625 
2500 703:0.11111111 1115:0.11111111 2342:0.11111111 4254:0.11111111 
2500 2124:0.10344828 
2500 66:0.28 306:0.06 709:0.08 1450:0.56 2383:0.12 2892:0.04 3893:0.14666667 4264:0.32 
2500 72:0.034482759 1641:0.034482759 1809:0.034482759 1988:0.034482759 3043:0.034482759 3208:0.068965517 4352:0.034482759 
2500 1676:0.041666667 2037:0.16666667 3823:0.083333333 
2500 690:0.075 737:0.1 1032:0.025 1348:0.3 1594:0.05 1870:0.075 2383:0.075 2628:0.025 4042:1 4138:0.04375 
2500 2124:0.16666667 
2500 789:0.15789474 853:0.052631579 2100:0.052631579 3077:0.076315789 
2500 1141:0.043478261 1589:0.043478261 1676:0.043478261 4254:0.043478261 
2500 2468:0.15384615 3772:0.15384615 4352:0.076923077 
2500 
2500 413:0.10714286 843:0.035714286 1241:0.125 1676:0.035714286 4058:0.071428571 
2500 1976:0.16666667 2124:0.027777778 2544:0.055555556 3093:0.027777778 4007:0.069444444 
2500 1419:0.16666667 
2500 895:0.10714286 944:0.035714286 1641:0.035714286 1731:0.035714286 2620:0.071428571 3533:0.035714286 
2500 1623:0.14285714 1676:0.071428571 
2500 2365:0.13333333 2561:0.13333333 2573:0.066666667 2831:0.13333333 3402:0.066666667 
2500 991:0.15789474 2341:0.10526316 2343:0.15789474 2691:0.052631579 3242:0.10526316 3707:0.15789474 
2500 1168:1 
2500 330:0.083333333 
2500 
1238.1579204698048 120:0.19047619 152:0.28571429 499:0.28571429 1115:0.047619048 1667:0.095238095 1976:0.095238095 3082:0.14285714 4349:0.14285714 
2500 1641:0.086956522 1756:0.2826087 3102:0.56521739 3274:0.13043478 
2500 164:0.42857143 404:0.14285714 3129:0.14285714 
2500 1735:0.14285714 
2500 72:0.045454545 1115:0.045454545 1735:0.045454545 3043:0.045454545 3976:0.045454545 
2500 486:0.066666667 1735:0.066666667 2001:0.066666667 2207:0.066666667 3093:0.066666667 4352:0.066666667 
2500 148:0.062015504 240:0.069767442 294:0.046511628 2100:0.046511628 2783:0.18604651 3914:0.069767442 
2500 406:0.42857143 
2500 72:0.25 4080:1 
2500 996:1 
2500 1641:0.058823529 3978:0.11764706 4248:0.11764706 
2500 
2500 591:0.16666667 1676:0.083333333 2124:0.16666667 2529:0.25 2751:0.083333333 
2500 
2500 
2500 
2500 1641:0.071428571 2851:0.071428571 3682:0.14285714 3826:0.14285714 
2500 513:0.1 2024:0.05 3533:0.05 
2500 1544:0.066666667 1641:0.066666667 2124:0.066666667 2341:0.13333333 2651:0.066666667 
2500 148:0.083333333 1712:0.0625 2213:0.40625 4007:0.15625 
2500 318:0.14285714 815:0.28571429 
2500 3689:0.75 
2500 2245:0.2 
2500 
2500 278:0.045454545 2627:0.13636364 3379:0.090909091 
2500 805:0.16 2445:0.04 4115:0.16 4352:0.04 
2500 675:0.15 1712:0.05 3421:0.1 3482:0.2 4028:0.05 
2500 733:0.095238095 1534:0.095238095 1571:0.095238095 1676:0.047619048 1826:0.23809524 3077:0.069047619 3419:0.19047619 4131:0.047619048 4138:0.083333333 
2500 93:0.15789474 278:0.052631579 326:0.13157895 1152:0.026315789 1544:0.026315789 1735:0.026315789 1745:0.078947368 2651:0.026315789 2860:0.052631579 3015:0.026315789 3093:0.026315789 3772:0.052631579 
2500 1448:0.16666667 4372:0.83333333 
2500 852:0.033333333 1641:0.1 2383:0.1 3402:0.066666667 3825:0.13333333 
2500 1883:0.11111111 4224:0.11111111 4284:0.33333333 
2500 11:0.08 120:0.32 1641:0.04 2472:0.1 2742:0.08 3870:0.08 4252:0.2 
2500 220:0.045454545 931:0.22727273 1115:0.045454545 1471:0.045454545 2544:0.090909091 
2500 274:0.090909091 978:0.18181818 1300:0.045454545 1544:0.045454545 4054:0.045454545 
2500 
2500 
2500 939:0.14285714 2210:1 3866:0.14285714 
2500 4025:0.5 
2500 232:0.23529412 433:0.11764706 1128:0.058823529 1958:0.11764706 2024:0.058823529 
2500 
2500 
209.67855950764439 11:0.13333333 563:0.3 1531:0.53333333 1676:0.066666667 
2500 3402:0.22222222 
2500 101:0.5 574:0.5 703:0.083333333 2115:0.25 2465:0.16666667 4224:0.083333333 
1407.6760903752067 1525:0.6 1544:0.2 3402:0.2 3976:0.2 
2500 294:0.058823529 1634:0.26470588 2073:0.029411765 2374:0.14705882 2626:0.20588235 3916:0.11764706 4158:0.20588235 4359:0.088235294 
2500 1809:0.055555556 2892:0.055555556 3043:0.055555556 3567:0.055555556 
2500 911:0.058823529 2622:0.088235294 2813:0.088235294 3093:0.088235294 3640:0.029411765 
2500 3131:0.1 
2500 662:0.058823529 944:0.058823529 3229:0.35294118 4173:0.058823529 
2500 55:0.060606061 783:0.12121212 958:0.18181818 1229:0.060606061 1710:0.24242424 2066:0.03030303 2326:0.03030303 2377:0.090909091 2742:0.12121212 2901:0.03030303 3597:0.060606061 4104:0.03030303 
2500 1676:0.076923077 
2500 
2500 206:0.21428571 1004:0.14285714 1053:0.071428571 2013:0.28571429 4352:0.071428571 
2500 419:0.055555556 1247:0.11111111 1676:0.055555556 2124:0.055555556 3093:0.055555556 
2500 3806:0.36363636 
2500 1115:0.090909091 1209:0.18181818 2001:0.090909091 2414:0.18181818 
2500 3513:0.5 
2500 1676:0.090909091 
2500 72:0.11111111 148:0.074074074 1115:0.055555556 1209:0.11111111 2341:0.11111111 3140:0.16666667 
2500 1064:0.16666667 1692:0.16666667 2124:0.16666667 
2500 1641:0.055555556 1713:0.22222222 3043:0.11111111 4075:0.16666667 
116.42493960744089 1488:1 2636:1 
2500 
2500 116:0.36 1712:0.04 1924:0.12 2100:0.04 2451:0.08 
2500 4060:0.066666667 4352:0.066666667 
2500 
2500 2581:0.083333333 3043:0.083333333 3837:0.083333333 4007:0.20833333 4352:0.083333333 
1299.9986117487556 1123:0.066666667 1688:0.1 2217:0.2 2745:0.46666667 4352:0.033333333 
2500 
2500 4106:0.4 
2500 
2500 1543:0.2 1641:0.05 1676:0.05 
2500 
2500 296:0.037037037 678:0.074074074 690:0.11111111 1364:0.074074074 1676:0.037037037 4089:0.11111111 4198:0.14814815 
2500 1676:0.090909091 
2500 
2500 355:0.026315789 606:1 1293:0.078947368 1676:0.026315789 2342:0.026315789 3096:0.026315789 3522:0.026315789 3837:0.052631579 4131:0.052631579 4397:0.34210526 
2500 
2500 1137:0.090909091 2032:0.090909091 2342:0.090909091 
2500 1107:0.36363636 2124:0.090909091 2581:0.090909091 
1092.4640799406579 1988:0.25 3277:1 4293:0.25 
1123.0702553468916 3865:0.71428571 4352:0.14285714 
2500 849:0.16666667 3093:0.16666667 3756:0.33333333 4036:0.16666667 
2500 1366:0.14285714 2860:0.14285714 
2500 1532:0.2 3987:0.2 
969.999801728531 292:0.28571429 404:0.14285714 1712:0.14285714 
2500 
2500 853:0.33333333 
2500 439:0.6 948:1 
2500 1641:0.25 
2500 
2500 
2500 1924:0.5 
2500 24:0.075 915:0.25 1676:0.05 1735:0.05 3924:0.1 3994:0.15 4165:0.45 
2500 72:0.038461538 776:0.076923077 1467:0.038461538 1586:0.30769231 1641:0.076923077 1922:0.076923077 2100:0.038461538 2581:0.038461538 3400:0.15384615 4200:0.076923077 
2500 
2500 413:0.23076923 919:0.23076923 1403:0.92307692 2124:0.23076923 2434:0.15384615 
2500 1782:0.25 
2500 189:0.13333333 1735:0.066666667 3015:0.066666667 3774:0.066666667 
2500 433:0.66666667 1103:0.33333333 
2500 4114:0.71428571 
2500 849:0.029411765 1308:0.11764706 1430:0.029411765 1735:0.029411765 2024:0.029411765 2523:0.058823529 2705:0.029411765 2851:0.029411765 4206:0.029411765 
2500 
2500 1181:0.11764706 1514:0.058823529 1641:0.058823529 2024:0.058823529 3043:0.058823529 
2500 376:0.125 930:0.5 
2500 878:0.55555556 1532:0.055555556 1735:0.055555556 1922:0.11111111 3843:0.11111111 
2500 264:0.090909091 1641:0.18181818 2168:0.29545455 2892:0.090909091 
2500 111:0.064516129 787:0.096774194 961:0.12903226 1367:0.064516129 1676:0.032258065 2529:0.096774194 3552:0.064516129 3907:0.12903226 
2500 843:0.11111111 1902:0.22222222 
2500 2207:0.066666667 3146:0.13333333 4352:0.066666667 
2500 1364:0.14285714 1641:0.14285714 3043:0.14285714 4034:0.14285714 
2500 1676:0.071428571 2636:0.14285714 
2231.6138794330486 80:1 1460:0.55555556 1544:0.22222222 1958:0.22222222 3402:0.11111111 3925:0.22222222 
2500 1115:0.04 1735:0.04 1881:0.04 2024:0.04 2252:0.08 2892:0.08 3229:0.12 
2500 
2500 72:0.033333333 220:0.033333333 852:0.033333333 2564:0.13333333 2594:0.033333333 2691:0.066666667 2742:0.066666667 4206:0.033333333 4352:0.033333333 
2500 419:0.090909091 2706:0.86363636 3146:0.18181818 
2500 
2500 1731:0.083333333 1868:0.083333333 
2500 72:0.025641026 830:0.53846154 1035:0.076923077 1610:0.051282051 1911:0.076923077 3566:0.1025641 
2500 2622:0.25 
2500 120:0.18604651 278:0.023255814 552:0.046511628 1799:0.023255814 2124:0.046511628 2751:0.046511628 
2500 433:0.052631579 486:0.026315789 732:0.13157895 768:0.18421053 1128:0.026315789 1443:0.078947368 2917:0.078947368 3572:0.052631579 4347:0.026315789 4352:0.026315789 
831.72253956670158 2124:0.25 2202:0.75 
2500 
2500 662:0.125 
2500 97:0.23684211 1608:0.026315789 2382:0.30263158 3166:0.31578947 3567:0.026315789 
2500 1214:0.16666667 3409:0.33333333 3942:0.083333333 
589.59963402655853 376:0.14285714 725:0.14285714 
2500 271:0.055555556 1641:0.083333333 2724:0.13888889 2892:0.055555556 
2500 144:0.375 1308:0.25 2024:0.125 3043:0.125 
2500 565:0.2 3987:0.2 
2500 298:0.15151515 979:0.87878788 1544:0.03030303 1729:0.12121212 2124:0.03030303 2935:0.12121212 4100:0.03030303 4347:0.03030303 4352:0.03030303 
2500 3402:0.055555556 4004:0.22222222 
2500 1791:0.090909091 3153:0.27272727 3987:0.090909091 4036:0.18181818 
2500 1198:0.19444444 1430:0.027777778 1510:1 2631:0.11111111 3987:0.055555556 
2500 3174:0.42857143 
2500 1363:0.090909091 1676:0.03030303 1712:0.03030303 1761:0.60606061 3116:0.060606061 3777:0.15151515 4182:0.12121212 
2500 206:0.15 2124:0.05 2276:0.15 
2500 
2500 
2500 189:0.060606061 1735:0.03030303 1976:0.060606061 2066:0.03030303 2124:0.03030303 2581:0.03030303 2925:0.3030303 3523:0.060606061 4064:0.060606061 4353:0.060606061 4402:0.060606061 
2500 1621:0.16666667 3779:0.16666667 3883:0.33333333 
2367.1315126923537 826:1 
2500 
2500 725:0.066666667 2124:0.066666667 3703:0.33333333 3721:0.13333333 
2500 1349:0.16666667 1544:0.041666667 2100:0.041666667 2666:0.16666667 3533:0.041666667 3644:0.083333333 
2500 294:0.095238095 1164:0.047619048 1292:0.047619048 1641:0.047619048 1676:0.047619048 2716:0.095238095 3953:0.14285714 
2500 
2500 
2500 618:0.14285714 636:0.10714286 836:0.071428571 1128:0.035714286 1201:0.10714286 2100:0.035714286 2341:0.071428571 2561:0.071428571 2611:0.071428571 2905:0.035714286 3826:0.071428571 
2500 919:0.18181818 1430:0.03030303 1641:0.03030303 1676:0.03030303 1930:0.12121212 3241:0.24242424 
2500 8:1 258:0.1875 1137:0.03125 1526:0.125 1633:0.0625 1676:0.03125 2489:0.09375 2940:0.09375 4312:0.25 4337:0.34375 
2500 3043:0.125 
2500 1293:0.17647059 2573:0.058823529 4047:0.23529412 4352:0.058823529 
2500 99:0.15384615 2100:0.076923077 3987:0.076923077 4060:0.076923077 
2500 
2500 943:1 1505:1 
2500 1194:0.21052632 1676:0.052631579 1735:0.052631579 2392:0.052631579 3825:0.21052632 3964:0.21052632 
2500 2573:0.25 
2500 1828:0.4 2622:0.2 
2500 1616:0.11111111 4036:0.11111111 4060:0.11111111 
2500 2100:0.038461538 4064:0.076923077 4352:0.038461538 
1.3252523671590963 2073:1 
2500 
2500 72:0.125 387:0.125 2622:0.125 
2500 1525:0.6 1670:0.2 2573:0.2 
2500 359:0.14285714 1079:0.23809524 1123:0.095238095 1292:0.047619048 1461:0.19047619 1670:0.047619048 4036:0.095238095 
2500 876:0.078947368 1088:0.052631579 1128:0.026315789 1137:0.026315789 2636:0.052631579 3410:0.052631579 3866:0.026315789 4352:0.026315789 
2500 83:0.058823529 725:0.029411765 853:0.088235294 1641:0.088235294 1676:0.029411765 2892:0.058823529 3533:0.029411765 
2500 
2500 
2500 2124:0.25 
2500 
2500 
2500 4293:1 
2500 2215:0.071428571 2594:0.071428571 3379:0.14285714 
2500 338:0.16666667 420:0.66666667 815:0.33333333 1257:0.41666667 
2500 
2500 296:0.25 
1077.9558713699716 565:0.025 1370:0.1 1735:0.025 2445:0.1 2748:0.075 2762:0.1 3093:0.025 3237:0.05 3297:0.05 3378:0.225 3532:0.025 3825:0.1 3925:0.05 4115:0.2 4352:0.05 
2500 1115:0.1 3363:0.1 4034:0.1 
2500 294:0.097560976 296:0.024390244 439:0.073170732 460:0.45528455 673:0.3902439 863:0.23170732 1641:0.097560976 2654:0.024390244 2691:0.048780488 3131:0.048780488 3353:0.073170732 3935:0.024390244 
2500 693:0.33333333 
2500 1308:0.12121212 1384:0.060606061 1514:0.03030303 2088:0.18181818 2321:0.090909091 3774:0.03030303 4352:0.03030303 
2500 2080:0.45454545 
2500 852:0.083333333 1641:0.083333333 2383:0.25 3402:0.083333333 
2500 1676:0.055555556 2124:0.055555556 2195:0.44444444 3387:0.44444444 4017:0.13888889 
2500 820:0.076923077 928:0.076923077 1641:0.076923077 3039:0.038461538 3290:0.076923077 4293:0.038461538 
2500 
2500 
2500 
2500 
2500 1152:0.04 1273:0.04 2315:0.12 4226:0.16 
2500 
501.67917282640474 2676:1 
2500 961:0.21052632 
2500 378:0.11111111 1641:0.074074074 3226:0.037037037 4308:0.037037037 
2500 271:0.04 1641:0.04 2124:0.04 2651:0.04 3642:0.14 4064:0.08 
2500 
2500 
2500 2452:0.074074074 3082:0.11111111 3131:0.037037037 3223:0.33333333 4139:0.59259259 
2500 2124:0.05 2877:0.05 
2500 
2500 83:0.054054054 1991:0.10810811 2341:0.054054054 2406:0.081081081 2925:0.21621622 3093:0.054054054 4302:0.24324324 
2500 1676:0.090909091 
2500 83:0.055555556 760:0.23611111 895:0.027777778 1164:0.027777778 1891:0.027777778 2581:0.027777778 3174:0.16666667 3298:0.055555556 3353:0.083333333 3443:0.055555556 4352:0.027777778 
2500 157:0.2173913 662:0.043478261 2788:0.086956522 3448:0.63043478 3572:0.086956522 4058:0.086956522 4064:0.086956522 4352:0.043478261 
2500 2441:0.090909091 3402:0.090909091 
2500 1716:0.27272727 2649:0.40909091 2892:0.045454545 2988:0.090909091 3174:0.27272727 
2500 1732:0.2 4284:0.6 
2500 72:0.060606061 597:0.03030303 1641:0.03030303 1676:0.03030303 1731:0.03030303 2100:0.03030303 2928:0.03030303 2945:0.060606061 3043:0.03030303 3370:0.03030303 4296:0.18181818 
2500 
522.47408694047681 278:0.083333333 288:0.5 1641:0.083333333 
2500 72:0.11111111 376:0.11111111 2654:0.11111111 
2500 1688:0.033333333 2100:0.033333333 2452:0.066666667 3043:0.033333333 3298:0.13333333 3597:0.066666667 
2500 565:0.034482759 1011:0.27586207 1543:0.13793103 1641:0.034482759 1670:0.034482759 1676:0.034482759 2736:0.068965517 3073:0.068965517 3538:0.034482759 
2500 2558:0.375 
2500 1115:0.037037037 1419:0.037037037 1976:0.074074074 2100:0.037037037 3523:0.074074074 3844:0.074074074 
2500 
2500 72:0.026315789 249:0.10526316 1308:0.10526316 1594:0.052631579 2149:0.052631579 2622:0.026315789 2877:0.026315789 3297:0.052631579 4352:0.026315789 
2500 
2500 
2500 
2500 1317:0.25 1676:0.083333333 3096:0.083333333 3513:0.083333333 
2500 964:0.058823529 1035:0.17647059 3402:0.11764706 3640:0.058823529 4036:0.058823529 
2500 144:0.096774194 813:0.16129032 1569:0.25806452 2868:0.064516129 2906:0.032258065 3522:0.032258065 4352:0.032258065 
2500 
2500 
2500 413:0.5 2434:0.33333333 
2500 
2500 3043:0.1 
2500 72:0.028571429 240:0.085714286 895:0.028571429 1443:0.085714286 1652:0.11428571 2392:0.028571429 2594:0.028571429 2651:0.028571429 3093:0.028571429 3242:0.057142857 3288:0.085714286 3532:0.028571429 4293:0.028571429 
2500 1134:0.11111111 1152:0.055555556 2804:0.22222222 3513:0.055555556 
2500 1295:0.25 1633:0.5 4223:0.25 
2500 2672:0.11111111 3043:0.11111111 
2500 355:0.052631579 1115:0.052631579 1141:0.052631579 1488:0.10526316 1667:0.10526316 
2500 2032:0.11111111 4281:0.11111111 
2500 939:0.083333333 1667:0.16666667 1839:0.33333333 3043:0.083333333 3337:0.5 
2500 1509:0.45454545 2851:0.090909091 
2500 191:0.32758621 1035:0.10344828 2845:0.034482759 4157:0.82758621 
2500 1641:0.043478261 1676:0.043478261 2088:0.26086957 2636:0.086956522 
2500 890:0.1 1328:0.35 2482:0.1 
2500 1275:0.086956522 1676:0.043478261 2149:0.086956522 2636:0.086956522 2654:0.086956522 3073:0.17391304 3532:0.043478261 3774:0.043478261 
2500 55:0.064516129 689:0.064516129 1308:0.12903226 1532:0.032258065 2514:0.12903226 3337:0.19354839 3532:0.032258065 4058:0.064516129 4352:0.032258065 
2500 770:0.11764706 1641:0.058823529 1728:0.29411765 2001:0.058823529 2651:0.058823529 2719:0.23529412 3174:0.17647059 
2500 417:0.032258065 1688:0.032258065 1809:0.032258065 1881:0.032258065 1891:0.032258065 2100:0.032258065 2642:0.064516129 2923:0.096774194 2970:0.096774194 3131:0.096774194 3772:0.064516129 4352:0.032258065 
2500 
2500 1641:0.052631579 2906:0.052631579 3045:0.052631579 3242:0.10526316 4268:0.052631579 4347:0.052631579 
2500 227:0.078947368 662:0.052631579 1641:0.052631579 2519:0.052631579 2581:0.052631579 2651:0.052631579 3441:0.052631579 
2500 347:0.42857143 1712:0.14285714 
2500 1128:0.14285714 2938:0.28571429 
1140.9766383443996 2536:1 
2500 1641:0.14285714 
2500 1341:0.14285714 2124:0.047619048 
2500 64:0.076923077 428:0.076923077 662:0.038461538 703:0.038461538 2124:0.038461538 3032:0.34615385 3402:0.076923077 
2500 2341:0.16666667 4036:0.083333333 
2500 1755:0.25 
2500 
2500 1799:0.03030303 2008:0.090909091 2221:0.060606061 4036:0.03030303 4352:0.03030303 
2500 1641:0.047619048 1735:0.047619048 2100:0.047619048 3333:0.23809524 3480:0.095238095 
2500 1586:0.72727273 2959:0.27272727 3441:0.090909091 4206:0.090909091 4395:0.45454545 
2500 1181:0.086956522 1676:0.043478261 2124:0.043478261 3208:0.086956522 
2500 151:0.28571429 1433:0.57142857 2124:0.14285714 
2500 
2500 783:0.5 4223:0.25 
2500 1128:0.045454545 1441:0.045454545 3697:0.18181818 
2500 1115:0.066666667 2124:0.066666667 3043:0.066666667 3821:0.13333333 3987:0.066666667 
2500 1891:0.066666667 2100:0.066666667 
2500 
2500 24:0.09375 564:0.09375 1633:0.0625 1641:0.03125 1731:0.03125 2020:0.3125 2124:0.03125 3421:0.0625 4066:0.25 
2500 518:0.066666667 1194:0.066666667 2391:0.066666667 2576:0.33333333 3093:0.033333333 4293:0.033333333 4352:0.033333333 
2500 912:0.09375 1532:0.03125 2066:0.0625 3018:0.1875 4184:0.03125 
2500 549:0.08 1128:0.04 1676:0.04 3116:0.04 3657:0.32 
2500 953:0.71428571 1304:0.42857143 
2500 2544:0.33333333 2742:0.33333333 
2500 67:1 
2500 961:0.10526316 1366:0.052631579 1676:0.026315789 1988:0.026315789 3755:0.026315789 
2500 1670:0.18181818 4036:0.090909091 4064:0.36363636 
2500 128:1 
2500 99:0.28571429 1939:0.14285714 
2500 856:0.05 1208:0.1 1542:0.2 2993:0.4 3105:0.075 4054:0.05 4060:0.05 4184:0.05 
2500 9:0.083333333 2452:0.16666667 3093:0.083333333 4352:0.083333333 
2500 1676:0.066666667 1760:0.066666667 2342:0.066666667 
1717.6133891309328 1676:0.052631579 3305:0.94736842 
2500 355:0.058823529 1430:0.058823529 1676:0.058823529 3821:0.11764706 4415:0.23529412 
2500 1608:0.14285714 3786:0.28571429 
2500 
2500 1641:0.043478261 2827:0.086956522 
2500 
2500 
2500 1680:0.125 2124:0.125 2581:0.125 
2500 843:0.083333333 1641:0.083333333 2498:0.083333333 4133:0.16666667 
2500 895:0.071428571 1115:0.071428571 1589:0.071428571 4036:0.071428571 
2500 2112:0.058823529 2720:1 3415:0.16470588 
2500 565:0.33333333 1137:0.16666667 2984:0.16666667 
2500 
2500 565:0.04 1115:0.04 1419:0.04 1443:0.12 3991:0.12 
2500 852:0.11111111 1532:0.11111111 2892:0.11111111 
2500 617:0.10344828 939:0.034482759 2100:0.034482759 2996:0.20689655 3290:0.068965517 
2500 88:0.24242424 1292:0.060606061 1641:0.060606061 4248:0.060606061 4352:0.03030303 
2500 
2500 725:0.04 912:0.24 956:0.04 1226:0.16 1608:0.04 2027:0.08 3523:0.08 3987:0.04 
2500 565:0.047619048 2853:0.19047619 3682:0.095238095 4352:0.047619048 
2500 835:0.17647059 3271:0.11764706 
2500 1532:0.33333333 
2500 1161:0.29411765 1352:0.058823529 1577:0.29411765 1666:0.029411765 1906:0.10294118 2494:0.058823529 2789:0.10294118 3167:0.029411765 3567:0.029411765 3826:0.058823529 4246:0.11764706 
2500 552:0.08 1559:0.12 1641:0.08 2389:0.14 3040:0.04 3319:0.48 3533:0.08 3894:0.04 
2500 
2500 537:0.088235294 678:0.058823529 1115:0.029411765 1128:0.029411765 1284:0.029411765 1448:0.11764706 1458:0.11764706 1544:0.029411765 2392:0.029411765 2945:0.058823529 3146:0.058823529 4022:0.073529412 
2500 1479:0.33333333 3363:0.16666667 3640:0.16666667 4173:0.16666667 
2500 11:0.22222222 3129:0.22222222 
2500 420:0.44444444 2009:0.66666667 
2500 3398:0.25 
2500 
2500 565:0.043478261 1292:0.043478261 1891:0.043478261 2557:0.13043478 2762:0.17391304 2956:0.086956522 3774:0.043478261 4352:0.043478261 
1828.6810895460164 1851:0.5 
2500 1676:0.058823529 2073:0.058823529 2341:0.11764706 2622:0.058823529 3065:0.29411765 3421:0.11764706 
2500 
2500 2303:0.18181818 
2500 424:0.14285714 1676:0.071428571 2482:0.071428571 3270:0.071428571 
2500 662:0.071428571 2445:0.071428571 3552:0.071428571 
2500 
2500 1676:0.090909091 2001:0.090909091 2571:0.090909091 
2500 69:0.41666667 
2500 220:0.027777778 597:0.027777778 1519:0.16666667 1735:0.027777778 2024:0.11111111 2594:0.027777778 2724:0.027777778 2906:0.027777778 3533:0.027777778 3825:0.11111111 4352:0.027777778 
2500 
2500 1641:0.066666667 
2500 3131:0.25 
232.89449685668802 968:0.42857143 1859:1 2100:0.14285714 
2500 
2500 895:0.033333333 1163:0.28333333 1194:0.066666667 1676:0.033333333 2938:0.066666667 3541:0.36666667 
2500 2109:0.23809524 
2500 513:0.25 2419:0.25 
2500 1070:0.75 2730:0.5 
2500 895:0.043478261 1641:0.043478261 1656:0.13043478 4254:0.043478261 
2500 3163:0.15384615 3226:0.076923077 3572:0.15384615 4329:1 
2500 
2500 1641:0.05 1676:0.05 3093:0.05 
2500 635:0.14814815 815:0.074074074 843:0.037037037 2035:0.37037037 3546:0.074074074 3597:0.074074074 3771:0.037037037 4004:0.14814815 4184:0.037037037 
2500 1676:0.035714286 1915:0.10714286 2865:0.071428571 2969:0.10714286 3349:0.035714286 
2500 1308:0.0625 1641:0.03125 1842:0.03125 2047:0.125 2905:0.0625 4196:0.1875 4308:0.03125 
2500 72:0.045454545 419:0.045454545 815:0.090909091 2905:0.045454545 2958:0.22727273 
2500 
2500 2652:0.25 3262:0.625 
2500 
2500 1123:0.16666667 2523:0.083333333 4144:0.083333333 
2500 1641:0.11111111 3987:0.11111111 
2500 915:0.25 2073:0.05 2240:0.35 3342:0.3 4352:0.05 
2500 120:0.2 376:0.05 626:0.1 636:0.15 1641:0.05 3256:0.35 
2500 240:0.22222222 509:0.18518519 1441:0.037037037 1641:0.037037037 1734:0.2962963 2321:0.11111111 3533:0.037037037 3788:0.074074074 4352:0.037037037 
2500 605:0.055555556 1826:0.27777778 3045:0.055555556 3093:0.055555556 4144:0.11111111 
2500 896:0.14285714 1676:0.035714286 1988:0.035714286 2285:0.10714286 2680:0.035714286 3096:0.035714286 3380:0.071428571 
2500 1158:0.060606061 1218:0.075757576 1292:0.03030303 1676:0.03030303 3609:0.03030303 
2500 2100:0.033333333 2544:0.066666667 3174:0.1 3786:0.066666667 3870:0.033333333 4408:0.066666667 
419.50840441518505 72:0.0625 598:1 1523:0.3125 1988:0.0625 2266:0.125 3976:0.0625 4352:0.0625 
2500 318:0.026315789 1676:0.026315789 1735:0.026315789 
2500 662:0.038461538 895:0.038461538 939:0.038461538 1430:0.19230769 2124:0.038461538 3131:0.038461538 
2500 
2500 725:0.029411765 744:0.058823529 1441:0.029411765 1551:0.17647059 2594:0.029411765 2892:0.029411765 3597:0.058823529 4192:0.17647059 
2500 896:0.4 2488:1 3400:0.8 
2500 
2500 294:0.11764706 725:0.058823529 3870:0.058823529 4136:0.058823529 
2500 725:0.5 
2500 2762:0.28571429 
2500 1828:0.66666667 
756.69083933209367 1477:0.85714286 2100:0.047619048 2851:0.047619048 3043:0.047619048 3093:0.047619048 
2500 271:0.33333333 
2500 
2500 939:0.032258065 1134:0.064516129 1448:0.032258065 1676:0.032258065 2124:0.032258065 2159:0.096774194 2342:0.032258065 2705:0.032258065 3820:0.14516129 3916:0.12903226 4293:0.032258065 
2500 
2500 99:0.2 1939:0.1 
2500 3169:0.33333333 
1359.1430828798809 695:1 720:0.2962963 824:0.12345679 843:0.037037037 935:1 1064:0.11111111 1466:1 2268:0.11111111 3510:0.074074074 3857:0.66666667 
2500 393:0.090909091 717:0.18181818 1676:0.090909091 1701:0.090909091 
2500 1273:0.071428571 1735:0.071428571 2892:0.071428571 
2500 2470:0.064516129 2544:0.12903226 2975:0.032258065 3987:0.032258065 
2500 3146:0.28571429 4145:0.28571429 
2500 355:0.055555556 486:0.055555556 604:0.5 981:0.16666667 2317:0.055555556 2561:0.11111111 3045:0.055555556 
2500 220:0.023809524 2938:0.047619048 3506:0.11904762 3798:0.047619048 3914:0.071428571 3994:0.071428571 4184:0.023809524 
2500 1851:0.4 
2500 278:0.024390244 1799:0.048780488 2124:0.073170732 
2500 1523:0.625 2573:0.125 2886:0.25 2993:0.5 4194:0.125 
2500 1181:0.16666667 1669:0.27083333 1676:0.041666667 2707:0.083333333 3302:0.083333333 
2500 3771:1 
2500 1641:0.0625 4059:0.75 4108:0.125 
2500 320:0.076923077 4302:0.23076923 
2500 1081:0.058823529 
2500 4040:0.25 
2500 159:0.36363636 
2500 271:0.034482759 513:0.068965517 1641:0.068965517 2124:0.034482759 2317:0.034482759 2892:0.034482759 3415:0.096551724 
2500 853:0.090909091 1325:0.18181818 1735:0.090909091 3292:0.18181818 
2500 1841:0.076923077 1881:0.076923077 2654:0.076923077 2668:0.15384615 2892:0.15384615 2945:0.15384615 4352:0.076923077 
2500 2100:0.11538462 2453:0.076923077 3131:0.076923077 
2500 
2500 417:0.0625 1128:0.0625 2445:0.0625 3292:0.125 3671:0.3125 4034:0.0625 
2500 1364:0.1 1688:0.1 3333:0.5 
2500 678:0.086956522 2124:0.043478261 2504:0.13043478 3421:0.086956522 
2500 
2500 
2500 1115:0.076923077 1881:0.076923077 3642:0.26923077 4036:0.076923077 
2500 148:0.038095238 271:0.085714286 1115:0.028571429 1300:0.028571429 1891:0.028571429 2724:0.085714286 4352:0.028571429 
2500 220:0.04 269:0.16 915:0.2 1647:0.4 2892:0.04 3104:0.16 4047:0.16 4262:0.12 
2500 549:0.11111111 849:0.055555556 1430:0.055555556 1593:0.055555556 1641:0.055555556 1676:0.055555556 1680:0.055555556 3274:0.16666667 
2500 3994:0.6 
2500 72:0.047619048 1633:0.095238095 1826:0.23809524 2124:0.047619048 2410:0.047619048 2714:0.14285714 3156:0.14285714 4057:0.095238095 
2500 689:0.2 852:0.2 1950:0.2 
2500 
2500 
2500 1621:0.04 1641:0.04 1676:0.04 1701:0.08 1881:0.04 2083:0.12 3175:1 3270:0.08 
2500 
2500 4200:0.5 
2500 626:0.076923077 725:0.038461538 1128:0.038461538 1162:0.46153846 1729:0.15384615 1842:0.038461538 2073:0.038461538 2905:0.038461538 4064:0.076923077 
2500 3093:0.5 
2500 1525:0.27272727 
2500 1809:0.052631579 3013:0.21052632 3513:0.052631579 3671:0.26315789 
2500 1221:0.77777778 1988:0.11111111 
2500 1881:0.058823529 1891:0.058823529 2100:0.058823529 2494:0.11764706 3093:0.058823529 
2500 1848:0.16666667 2124:0.055555556 2611:0.11111111 3093:0.055555556 3818:0.16666667 4004:0.22222222 4104:0.055555556 
2500 
2500 2851:0.33333333 
2500 
2500 
2500 1641:0.11111111 3402:0.11111111 
2500 2001:0.11111111 2869:0.66666667 
2464.4276730512352 1352:1 
2500 1288:0.17857143 1308:0.071428571 3976:0.035714286 
2500 1633:0.11764706 1641:0.11764706 1676:0.058823529 2622:0.058823529 4353:0.11764706 
2500 1115:0.045454545 1229:0.090909091 2536:0.090909091 
2500 895:0.028571429 2027:0.11428571 2391:0.057142857 2784:0.085714286 2854:0.22857143 3735:0.085714286 3779:0.028571429 3826:0.17142857 3894:0.028571429 4349:0.085714286 
2500 2303:0.25 
2500 939:0.1 2041:0.2 2907:0.4 3534:0.6 
2500 2813:0.21428571 
2500 1633:0.25 1641:0.125 3093:0.125 
2500 1115:0.024390244 1308:0.097560976 1443:0.073170732 1641:0.024390244 1676:0.024390244 1735:0.024390244 2025:0.097560976 3909:0.073170732 
2500 499:0.375 1985:1 2382:0.71875 4302:0.1875 4333:0.75 
2500 227:0.13636364 2124:0.090909091 
2500 296:0.095238095 393:0.047619048 981:0.14285714 1701:0.095238095 2831:0.095238095 3441:0.095238095 
2500 1498:0.15 1676:0.05 1976:0.2 3242:0.1 
2500 1400:0.58823529 1514:0.058823529 2395:0.058823529 3779:0.058823529 4221:0.058823529 
2500 939:0.2 2100:0.1 2343:0.3 
2500 2303:0.5 
2500 326:0.29411765 1514:0.058823529 2487:0.23529412 
2500 1115:0.071428571 1641:0.14285714 
2500 3093:0.14285714 3942:0.14285714 
2500 33:0.11764706 1820:0.11764706 2831:0.11764706 2970:0.17647059 4268:0.058823529 
2500 
2500 271:0.25 4135:0.25 
2500 1060:0.25 1137:0.035714286 1194:0.071428571 1308:0.071428571 2112:0.035714286 2436:0.5 2654:0.035714286 4352:0.035714286 
2500 2124:0.16666667 2851:0.16666667 
2500 939:0.42857143 
2500 
2500 387:0.05 852:0.05 1115:0.05 1757:0.05 2906:0.05 3552:0.05 4287:0.1 
2500 2202:0.10714286 2392:0.035714286 2719:0.14285714 3905:0.071428571 4293:0.035714286 4352:0.071428571 
2500 66:0.19444444 1194:0.055555556 1320:0.083333333 1676:0.027777778 2636:0.055555556 3870:0.027777778 3976:0.027777778 4060:0.027777778 
2500 498:0.75 
2500 
2500 1641:0.25 
2500 355:0.076923077 852:0.23076923 2654:0.076923077 
2500 486:0.058823529 1123:0.11764706 2124:0.11764706 
2500 1337:0.66666667 1712:0.066666667 2494:0.13333333 
2500 495:0.054054054 1041:0.054054054 1194:0.054054054 1308:0.054054054 1641:0.054054054 1729:0.10810811 1976:0.054054054 2860:0.054054054 3288:0.081081081 3772:0.054054054 
2500 835:1 
2500 324:0.066666667 1366:0.066666667 2013:0.066666667 2901:0.033333333 4352:0.066666667 
2500 376:0.1 1544:0.05 1559:0.15 1826:0.25 1968:0.3 2825:0.1 3978:0.1 
2500 220:0.02173913 679:0.17391304 1988:0.043478261 3195:0.13043478 4036:0.043478261 4217:0.02173913 4352:0.043478261 
2500 628:0.36363636 895:0.090909091 1641:0.090909091 2429:0.36363636 4082:0.27272727 4223:0.045454545 4254:0.045454545 
2500 1526:0.18181818 1676:0.045454545 2573:0.045454545 2668:0.18181818 2851:0.045454545 
2500 164:0.75 1875:0.25 3552:0.25 
2500 376:0.068965517 1842:0.034482759 2835:0.13793103 3043:0.034482759 
2500 770:0.17391304 914:0.17391304 1804:0.043478261 2585:0.17391304 
2500 359:0.375 
2500 1988:0.25 
2500 1053:0.03030303 1485:0.40909091 1641:0.03030303 1676:0.03030303 2651:0.03030303 2716:0.03030303 3532:0.12121212 3649:0.18181818 4066:0.060606061 
2500 814:1 835:0.11538462 4223:0.038461538 
2500 278:0.076923077 
2500 11:0.0625 1676:0.03125 2707:0.0625 4261:0.125 
2500 843:0.033333333 1181:0.066666667 1688:0.033333333 2100:0.033333333 2124:0.066666667 2705:0.066666667 2956:0.066666667 3030:0.16666667 
2500 626:0.086956522 1128:0.043478261 1364:0.043478261 1905:0.2173913 2683:0.086956522 3991:0.13043478 
2500 1150:1 1883:0.083333333 4328:0.16666667 
2500 153:0.21052632 205:0.10526316 2276:0.078947368 3325:0.052631579 
2500 783:0.051282051 1476:0.076923077 1871:0.025641026 1958:0.051282051 1976:0.051282051 2118:0.076923077 2124:0.025641026 4302:0.076923077 
2500 
2500 83:0.064516129 428:0.064516129 2945:0.064516129 3682:0.064516129 4037:0.25806452 4064:0.064516129 4352:0.032258065 
2500 1439:0.14117647 1988:0.058823529 2563:0.29411765 3552:0.058823529 
2500 1430:0.1 1786:0.4 4301:0.5 
2500 789:0.090909091 1441:0.03030303 1641:0.03030303 2124:0.03030303 2557:0.090909091 3043:0.060606061 3441:0.03030303 3774:0.03030303 
2500 232:0.16 486:0.04 
2500 1246:0.16666667 1498:0.33333333 2581:0.055555556 4058:0.11111111 
2500 1666:0.066666667 1676:0.066666667 1809:0.066666667 2124:0.066666667 3941:0.066666667 
2500 2487:0.15384615 3039:0.038461538 3093:0.038461538 3402:0.076923077 3978:0.076923077 4217:0.038461538 
2500 919:0.075 2100:0.025 2664:0.1 3532:0.025 4058:0.05 
2500 294:0.28571429 4270:0.21428571 
2500 72:0.03030303 1177:0.6969697 1883:0.03030303 2337:0.44444444 2529:0.27272727 2841:0.39393939 3597:0.060606061 3973:0.45454545 4163:0.27272727 
2500 1304:0.42857143 
2500 204:0.15625 220:0.125 921:0.15625 2557:0.09375 2561:0.0625 4352:0.03125 
2500 359:0.15789474 2445:0.052631579 2691:0.052631579 3297:0.10526316 3951:0.26315789 4402:0.10526316 
2500 306:0.040540541 489:0.18918919 2100:0.027027027 3484:0.027027027 
2500 974:0.19047619 
2500 278:0.076923077 912:0.23076923 
2500 513:0.11111111 1688:0.055555556 1891:0.055555556 2724:0.055555556 4135:0.055555556 4347:0.055555556 
2500 3002:0.5 4270:0.75 
2500 1532:0.13636364 1676:0.045454545 2622:0.045454545 2813:0.13636364 
2500 1641:0.095238095 2851:0.047619048 2860:0.095238095 3043:0.095238095 3093:0.095238095 3107:1 
2500 
2500 1641:0.064516129 1735:0.032258065 2124:0.096774194 
2500 1430:0.5 
2500 1209:0.125 1641:0.0625 2582:0.125 2925:0.125 
2500 835:0.15 852:0.05 1281:0.2 1532:0.05 2742:0.1 2975:0.05 3043:0.05 
2500 
2500 296:0.055555556 
2500 1115:0.045454545 1273:0.045454545 1292:0.045454545 1676:0.045454545 2571:0.045454545 2956:0.090909091 3208:0.090909091 3552:0.045454545 3772:0.090909091 
2500 
2500 2827:0.33333333 3123:0.66666667 
2500 
2500 338:0.055555556 787:0.16666667 1430:0.055555556 2742:0.11111111 
2500 106:0.46666667 2100:0.066666667 2319:0.26666667 2716:0.066666667 
2500 552:0.5 2124:0.25 
2500 413:0.13636364 1364:0.045454545 1430:0.13636364 1670:0.045454545 1676:0.045454545 3043:0.045454545 
2500 72:0.03030303 587:0.090909091 1676:0.03030303 1891:0.03030303 2813:0.090909091 3219:0.090909091 3388:0.03030303 3410:0.060606061 3708:0.060606061 
2500 
2500 1712:0.029411765 2100:0.029411765 3208:0.058823529 4170:0.64705882 4352:0.029411765 
2500 
2500 1415:0.13043478 2452:0.086956522 2935:0.17391304 3597:0.086956522 4395:0.2173913 
2500 1115:0.028571429 1641:0.028571429 1676:0.028571429 1735:0.028571429 2024:0.028571429 2032:0.028571429 2342:0.028571429 3747:0.11428571 3821:0.057142857 4185:0.14285714 
2500 324:0.16666667 689:0.083333333 3402:0.083333333 
2500 1641:0.066666667 4352:0.066666667 
2500 
2500 2905:0.1 3246:0.2 
2500 
2500 1041:0.083333333 1053:0.041666667 1676:0.041666667 1775:0.1875 2716:0.041666667 3788:0.083333333 4089:0.125 
2500 3370:0.33333333 
2500 563:0.13636364 1308:0.060606061 2744:0.090909091 3043:0.03030303 
2500 
2500 
2500 1308:0.4 
2500 1641:0.047619048 1676:0.047619048 2594:0.047619048 3043:0.047619048 3870:0.047619048 
2500 3597:0.66666667 
2500 509:0.27777778 626:0.11111111 1641:0.055555556 4200:0.11111111 
2500 
2500 2452:0.25 
2500 1641:0.033333333 
2500 1735:0.2 
2500 2557:0.15789474 
2500 1922:0.086956522 2649:0.39130435 3552:0.043478261 3978:0.086956522 4072:0.043478261 4248:0.086956522 
2500 
2500 413:0.38461538 919:0.076923077 1641:0.025641026 1676:0.025641026 2434:0.35897436 
2500 843:0.029411765 1018:0.088235294 1616:0.058823529 2129:0.17647059 2646:0.11764706 2837:0.058823529 
2500 3402:0.055555556 3633:0.16666667 
2500 173:0.10526316 294:0.10526316 689:0.052631579 815:0.10526316 2945:0.10526316 3994:0.15789474 
2500 1115:0.033333333 1441:0.033333333 1755:0.13333333 2066:0.033333333 3597:0.066666667 3771:0.033333333 4034:0.033333333 4060:0.033333333 
2500 1832:0.25 2333:0.16666667 3093:0.16666667 3779:0.083333333 4330:0.16666667 
2500 1641:0.11111111 
2500 
2500 264:0.028571429 306:0.042857143 1226:0.11428571 1676:0.028571429 1735:0.028571429 2305:0.028571429 2442:0.057142857 2691:0.028571429 2860:0.057142857 2905:0.028571429 3663:0.11428571 
2500 182:0.44444444 3786:0.22222222 
2500 
2500 815:0.076923077 1292:0.038461538 2266:0.076923077 4346:0.076923077 
2500 1641:0.052631579 1676:0.052631579 2118:0.15789474 2124:0.052631579 
2500 347:0.090909091 623:0.060606061 1430:0.03030303 1851:0.060606061 2124:0.03030303 2594:0.03030303 3043:0.060606061 3370:0.03030303 3533:0.03030303 3774:0.03030303 4034:0.03030303 4293:0.060606061 
2500 64:0.28571429 2680:0.14285714 
2500 4242:0.54545455 
2034.6705242658556 836:0.083333333 1641:0.083333333 1712:0.041666667 1887:0.16666667 1988:0.041666667 2529:0.125 2869:0.25 2892:0.041666667 2940:0.375 
2500 355:0.14285714 796:0.71428571 2109:0.71428571 2561:0.28571429 
2500 
2500 
2500 306:0.083333333 1544:0.055555556 1621:0.055555556 1688:0.055555556 1804:0.055555556 4352:0.055555556 
2500 110:0.052631579 783:0.052631579 1010:0.13157895 2013:0.052631579 2487:0.10526316 
2500 565:0.1 874:0.3 3208:0.2 
2500 597:0.076923077 1366:0.15384615 1712:0.076923077 2124:0.076923077 3987:0.076923077 
2500 1238:1 1641:0.1 1797:0.2 4223:0.1 
2500 849:0.055555556 2124:0.055555556 2529:0.16666667 
2500 2126:1 
2500 849:0.16666667 
2500 1755:0.25 2073:0.125 3077:0.18125 
2500 433:0.18181818 
2500 
2500 2906:0.16666667 3434:0.16666667 
2500 1842:0.2 2073:0.2 
2500 220:0.025 1128:0.025 1272:0.1875 1514:0.025 1641:0.025 1729:0.1 1791:0.025 2610:0.225 2851:0.025 2905:0.075 3290:0.05 3533:0.025 3597:0.05 4352:0.025 
2500 72:0.025641026 265:0.076923077 565:0.025641026 1194:0.051282051 2563:0.12820513 2762:0.1025641 3964:0.051282051 3978:0.051282051 
2500 693:0.054054054 1089:0.081081081 1676:0.027027027 1680:0.027027027 
2500 486:0.125 3756:0.5 
2500 33:0.13333333 1430:0.066666667 3093:0.066666667 4017:0.16666667 
2500 1030:0.16666667 1670:0.083333333 1988:0.083333333 3581:0.5 
2500 71:0.25925926 824:0.12345679 852:0.037037037 3093:0.074074074 3567:0.037037037 3694:0.25925926 4352:0.037037037 4389:0.81481481 
2500 376:0.16666667 
2500 1676:0.090909091 
2500 853:0.5 
2500 
2500 1115:0.125 2276:0.375 
2500 72:0.033333333 294:0.066666667 770:0.066666667 1676:0.033333333 2845:0.033333333 3158:0.11666667 4064:0.066666667 
2500 2341:0.22222222 
2500 1712:0.25 
2500 22:0.18421053 404:0.052631579 1676:0.052631579 
2500 565:0.1 2072:0.1 2594:0.05 2877:0.05 4352:0.05 
2500 320:0.033333333 1115:0.033333333 1637:0.16666667 1670:0.033333333 1760:0.033333333 1851:0.066666667 3011:0.066666667 3153:0.1 3532:0.033333333 3950:0.066666667 4036:0.033333333 
2500 
2500 3410:0.4 
2500 1760:0.5 4036:0.5 
2500 346:0.125 1641:0.125 2660:0.3125 3131:0.0625 
2500 1090:0.11764706 2553:0.17647059 4211:0.35294118 4268:0.058823529 
2500 1641:0.071428571 2124:0.14285714 2628:0.071428571 
2500 232:0.18181818 689:0.045454545 1641:0.045454545 2087:0.22727273 2544:0.090909091 2940:0.13636364 3772:0.090909091 
2500 1137:0.034482759 1641:0.068965517 2124:0.10344828 2396:0.10344828 4200:0.068965517 
2500 278:0.125 3774:0.125 3883:0.25 4054:0.125 
2500 1641:0.033333333 3131:0.033333333 
2500 387:0.047619048 489:0.33333333 1676:0.047619048 2124:0.047619048 
2500 1891:0.066666667 4278:0.46666667 
2500 849:0.16666667 939:0.16666667 2544:0.33333333 
2500 776:0.090909091 1905:0.22727273 2520:0.18181818 2892:0.045454545 2905:0.045454545 3093:0.090909091 3481:0.13636364 3533:0.090909091 3717:0.090909091 
2500 278:0.043478261 2835:0.17391304 4036:0.086956522 4060:0.043478261 
2500 1128:0.25 
2500 1525:0.12 3073:0.08 4352:0.04 
2500 486:0.043478261 724:0.043478261 3924:0.086956522 
2500 1123:0.086956522 1676:0.043478261 2377:0.13043478 2544:0.17391304 4027:0.13043478 
2500 1641:0.03125 2001:0.03125 2124:0.03125 2742:0.0625 3697:0.375 
2500 1486:0.26470588 1544:0.058823529 1676:0.058823529 3045:0.058823529 3122:0.058823529 
2500 1883:0.041666667 2219:0.27777778 4352:0.041666667 
2500 104:0.075 347:0.075 355:0.025 2494:0.1 3093:0.025 3208:0.05 3261:0.1 3837:0.075 4064:0.05 
2500 2945:0.071428571 3410:0.071428571 3747:0.071428571 
2500 1443:0.16666667 1676:0.055555556 2742:0.11111111 
2500 1543:0.25 1676:0.0625 
2500 693:0.22222222 1988:0.11111111 4293:0.11111111 
2500 180:0.09375 895:0.03125 1851:0.0625 1988:0.03125 2636:0.0625 2716:0.03125 3146:0.0625 4293:0.03125 4352:0.03125 
2500 1258:0.23529412 1934:1 
2500 725:0.032258065 1676:0.032258065 2620:0.064516129 2651:0.032258065 4302:0.096774194 
2500 486:0.052631579 1308:0.10526316 1735:0.052631579 2083:0.15789474 2204:0.10526316 3093:0.052631579 3731:0.10526316 
2500 
2500 1194:0.068965517 1246:0.10344828 2392:0.068965517 2495:0.068965517 2594:0.034482759 3297:0.13793103 3825:0.13793103 3991:0.10344828 4293:0.034482759 
2500 2124:0.125 
2500 2100:0.0625 3012:0.1875 
2500 1308:0.17391304 1594:0.086956522 2582:0.086956522 2636:0.086956522 2724:0.043478261 3261:0.043478261 3575:0.086956522 3894:0.043478261 
2500 2716:0.33333333 
2500 1809:0.076923077 2410:0.076923077 3806:0.15384615 3837:0.15384615 3976:0.076923077 
2500 1308:0.13793103 2100:0.034482759 2523:0.068965517 4349:0.10344828 
2500 296:0.0625 1563:0.125 1641:0.0625 1676:0.0625 2441:0.0625 3270:0.125 
2500 1081:0.3 
2500 443:0.2 1667:0.13333333 
2500 495:0.066666667 1115:0.033333333 1141:0.033333333 1688:0.1 1883:0.033333333 2168:0.10833333 
2500 964:0.08 2400:0.2 2941:0.24 3402:0.08 3924:0.08 
2500 536:0.15384615 1115:0.076923077 3206:0.38461538 
2500 1308:0.11764706 1384:0.11764706 2392:0.058823529 3825:0.23529412 4352:0.058823529 
2500 
2500 355:0.16666667 1303:0.5 
1106.5889179461474 413:0.25 1016:1 2064:1 
2500 843:0.028571429 1364:0.028571429 2100:0.028571429 4017:0.071428571 
2500 1229:0.0625 1676:0.03125 1905:0.15625 4235:0.125 4352:0.03125 4386:0.140625 
2500 2851:0.071428571 
2500 1745:0.14285714 1936:0.095238095 2100:0.047619048 2212:0.42857143 3043:0.047619048 
2500 
2500 715:0.41176471 876:0.088235294 894:0.29411765 1115:0.029411765 1137:0.029411765 1194:0.058823529 2057:0.088235294 2392:0.029411765 2945:0.058823529 3994:0.088235294 
2500 177:0.1 964:0.1 2400:0.5 2941:0.6 3402:0.1 3637:0.4 3924:0.2 
2500 1589:0.047619048 1920:0.33333333 1943:0.047619048 2563:0.23809524 
2500 939:0.037037037 1272:0.092592593 1292:0.037037037 1641:0.074074074 1755:0.074074074 2324:0.22222222 2482:0.074074074 2892:0.037037037 3652:0.27777778 
2500 858:0.66666667 
2500 
2500 
2500 1641:0.076923077 1799:0.076923077 3976:0.076923077 
2500 2022:0.125 3755:0.125 3846:0.25 4104:0.125 
2500 449:0.4 
2500 3870:0.16666667 
2500 294:0.18181818 834:0.18181818 1641:0.090909091 2452:0.18181818 3129:0.090909091 3654:0.18181818 
2500 387:0.027027027 565:0.027027027 680:0.16216216 1194:0.054054054 1370:0.10810811 1443:0.081081081 1641:0.027027027 1826:0.13513514 1881:0.027027027 2325:0.13513514 2445:0.027027027 2762:0.10810811 2962:0.10810811 3210:0.13513514 3288:0.081081081 4293:0.027027027 
2500 1735:0.16666667 3015:0.16666667 
2500 
2500 
2500 72:0.032258065 505:0.096774194 537:0.032258065 2029:0.096774194 4254:0.032258065 
2500 413:0.23076923 2001:0.076923077 2734:0.23076923 2831:0.15384615 
2500 1641:0.05 1735:0.05 3093:0.05 3290:0.1 3957:0.65 
2500 1152:0.2 2168:0.65 
2500 2024:0.032258065 2027:0.064516129 3093:0.032258065 4206:0.032258065 4330:0.064516129 
2500 416:1 1924:0.75 3242:0.5 
2500 99:0.66666667 1939:0.33333333 3500:0.66666667 
2500 
2500 1663:0.32142857 1988:0.125 3293:0.125 4268:0.125 
2500 
2500 387:0.037037037 1128:0.037037037 1488:0.074074074 1633:0.074074074 2066:0.037037037 2742:0.14814815 
2500 1641:0.18181818 2495:0.18181818 
2500 3131:0.058823529 3564:0.11764706 3883:0.11764706 4347:0.058823529 
2500 895:0.066666667 1828:0.13333333 1881:0.066666667 
2500 
2500 2734:1 
2500 750:0.052631579 849:0.052631579 1241:0.18421053 1641:0.052631579 2159:0.15789474 2975:0.052631579 3894:0.052631579 
2500 2024:0.076923077 2905:0.076923077 4408:0.15384615 
2500 537:0.034482759 725:0.034482759 1428:0.72413793 1532:0.034482759 1712:0.034482759 1796:0.10344828 2149:0.13793103 3307:1 4352:0.034482759 
2500 294:0.074074074 3663:0.14814815 3682:0.074074074 4036:0.037037037 
2500 1676:0.058823529 
2500 722:0.16666667 2187:0.11111111 2719:0.44444444 
1559.7677571091219 2790:1 
2500 1229:0.074074074 1641:0.074074074 1676:0.037037037 2001:0.037037037 
2500 
2500 
2500 1156:0.090909091 1641:0.045454545 2686:0.18181818 3994:0.13636364 
2500 189:0.057142857 1115:0.028571429 1273:0.028571429 1532:0.028571429 1804:0.028571429 2073:0.028571429 2395:0.028571429 3043:0.057142857 3187:0.2 3916:0.11428571 4136:0.028571429 
2500 404:0.125 2611:0.25 2683:0.25 
2500 1323:0.125 1712:0.041666667 1755:0.083333333 4352:0.041666667 
108.38783860832118 744:0.125 1809:0.0625 2141:0.0625 2544:0.125 2750:1 3707:0.1875 
2500 2730:0.33333333 
2500 
2500 1164:0.25 3379:0.5 
2500 652:0.5 
2500 1470:0.11111111 1641:0.055555556 2410:0.055555556 
2500 855:0.33333333 1676:0.11111111 3093:0.11111111 
2500 449:0.14285714 1140:0.071428571 1661:0.14285714 1883:0.035714286 1958:0.071428571 2742:0.071428571 3208:0.071428571 3837:0.071428571 
2500 2306:0.69230769 
1137.1182119814355 275:0.10526316 413:0.078947368 820:0.052631579 991:0.078947368 1430:0.026315789 4352:0.078947368 
2500 
2500 3391:0.92 
2500 1641:0.076923077 
2500 413:0.09375 419:0.03125 729:0.0625 1676:0.03125 2851:0.03125 
2500 1641:0.14285714 2124:0.14285714 4150:0.14285714 
2500 3533:0.25 
2500 474:0.1 919:0.3 2190:0.25 2204:0.1 3156:0.3 
2500 2215:0.090909091 3298:0.18181818 4223:0.090909091 
2500 
2500 693:0.041666667 2676:0.041666667 3206:0.20833333 3914:0.125 4352:0.041666667 
2500 679:0.11428571 1735:0.028571429 1988:0.028571429 2392:0.028571429 2452:0.057142857 2495:0.11428571 2997:0.14285714 3093:0.028571429 4302:0.085714286 4352:0.028571429 
2500 
2500 865:0.1 1641:0.05 1676:0.05 1828:0.1 2610:0.15 
2500 2124:0.15384615 2945:0.15384615 3756:0.15384615 
2500 
2500 278:0.071428571 895:0.071428571 1141:0.071428571 1621:0.14285714 
2500 503:0.13333333 1532:0.066666667 1641:0.033333333 1991:0.066666667 2559:0.1 3077:0.048333333 3522:0.033333333 3806:0.066666667 3826:0.066666667 
606.6882102283621 2956:1 
2500 
2500 552:0.33333333 2022:0.33333333 3131:0.16666667 
2500 836:0.066666667 1103:0.033333333 1488:0.066666667 2324:0.2 2622:0.1 2742:0.066666667 3043:0.033333333 4352:0.033333333 
2500 2080:0.2173913 2124:0.043478261 2451:0.086956522 3484:0.13043478 4352:0.043478261 
2500 1525:0.21428571 1610:0.14285714 3116:0.071428571 
2500 1137:0.5 
2500 2561:0.13333333 2716:0.066666667 4352:0.066666667 
2500 3318:0.75 
1153.127404690556 173:0.058823529 435:0.14705882 1115:0.029411765 1273:0.029411765 1976:0.058823529 2529:0.088235294 2633:0.058823529 2636:0.058823529 2790:0.029411765 3325:0.058823529 3404:0.61764706 
2500 1272:0.17857143 1430:0.071428571 1711:0.35714286 3290:0.14285714 
2500 
2500 1441:0.041666667 1641:0.083333333 2100:0.041666667 2124:0.20833333 2705:0.041666667 4293:0.083333333 
2500 359:0.13043478 1293:0.13043478 2441:0.043478261 2816:0.086956522 
2500 849:0.076923077 1544:0.038461538 1676:0.038461538 1701:0.038461538 
2500 248:0.16666667 433:0.066666667 725:0.13333333 2024:0.13333333 2176:0.3 3786:0.066666667 3951:0.16666667 
2500 1819:0.125 2112:0.0625 3261:0.0625 
2500 220:0.03030303 741:0.060606061 2149:0.060606061 3719:0.060606061 4352:0.03030303 
2500 
2500 278:0.1 375:0.15 565:0.1 703:0.1 1791:0.05 3131:0.05 4064:0.2 4206:0.05 
2500 278:0.11111111 2299:0.22222222 3131:0.11111111 
2500 2120:0.63636364 3576:0.40909091 
2500 662:0.041666667 3334:0.16666667 3410:0.16666667 3533:0.041666667 
2500 1115:0.052631579 1641:0.052631579 3093:0.10526316 
2500 55:0.068965517 2544:0.13793103 3517:0.37931034 3637:0.13793103 4022:0.086206897 
2500 537:0.16666667 
2500 872:0.053333333 1641:0.08 1676:0.04 1771:0.12 2559:0.12 2742:0.08 
2500 939:0.038461538 1430:0.11538462 1641:0.076923077 2654:0.038461538 2905:0.038461538 3093:0.038461538 3290:0.076923077 
2500 1716:0.31578947 2688:0.31578947 3379:0.10526316 
2500 2544:0.18181818 2705:0.090909091 3092:0.63636364 
2500 3401:0.25 
2500 884:1 
2500 717:0.1 779:0.15 1441:0.05 1525:0.15 1735:0.05 2392:0.05 3292:0.1 3402:0.05 
2500 1544:0.14285714 
2500 
2500 55:0.15384615 496:1 939:0.076923077 958:0.46153846 1064:0.23076923 3126:0.76923077 3742:0.076923077 3829:0.69230769 4136:0.076923077 
2500 72:0.0625 1115:0.0625 2207:0.0625 
2500 
2500 359:0.075 835:0.075 1194:0.1 1273:0.025 1667:0.05 1676:0.025 1781:0.45 2392:0.05 2636:0.05 2816:0.1 3093:0.025 3870:0.025 4349:0.075 
2500 1863:1 2341:0.33333333 
2500 1039:0.2173913 2945:0.086956522 3640:0.043478261 
2500 1544:0.05 2168:0.1625 2519:0.05 2705:0.05 
2500 725:0.023255814 1525:0.069767442 2816:0.046511628 3370:0.023255814 3533:0.093023256 
2500 597:0.041666667 912:0.125 1676:0.041666667 
2500 4161:1 4402:0.66666667 
2500 159:0.4 4206:0.05 4207:0.35 4293:0.05 
2500 1641:0.055555556 1842:0.055555556 3055:0.27777778 4378:0.16666667 
2500 1273:0.064516129 1308:0.19354839 1641:0.032258065 1676:0.032258065 3131:0.032258065 3788:0.064516129 4228:0.22580645 
2500 110:0.090909091 895:0.045454545 1676:0.045454545 
2500 853:0.22222222 1676:0.11111111 1796:0.33333333 2188:0.77777778 3546:0.22222222 3883:0.22222222 
2500 
2500 
2500 852:0.032258065 1273:0.032258065 1676:0.032258065 1820:0.064516129 2149:0.064516129 2341:0.064516129 2622:0.032258065 2688:0.38709677 2800:0.19354839 3786:0.064516129 
2500 110:0.066666667 1140:0.033333333 2120:0.23333333 2736:0.066666667 2850:0.73333333 3663:0.13333333 
2500 1128:0.2 1439:0.48 2742:0.4 
2500 662:0.090909091 696:0.090909091 1883:0.090909091 
2500 1134:0.25 1666:0.125 2966:0.5 3385:0.25 3421:0.25 
2500 2892:0.16666667 
2500 1633:0.11764706 1676:0.058823529 2762:0.23529412 3096:0.058823529 3533:0.11764706 3597:0.11764706 
2500 1342:0.23529412 1641:0.058823529 1676:0.058823529 2573:0.058823529 
2500 3093:0.025641026 4352:0.025641026 
2500 4347:0.28571429 
2500 2149:0.22222222 
2500 2001:0.14285714 3721:0.28571429 
2500 2100:0.022222222 2441:0.088888889 3071:0.044444444 3886:0.15555556 3951:0.11111111 4352:0.022222222 
2500 1292:0.125 1891:0.125 2851:0.125 
2500 2658:0.2 2938:0.13333333 4347:0.066666667 
2500 1641:0.22222222 
2500 14:0.22222222 587:0.33333333 1881:0.11111111 2341:0.22222222 
2500 1712:0.05 1988:0.05 3772:0.1 
2500 552:0.076923077 1181:0.076923077 1676:0.038461538 1738:0.30769231 2561:0.076923077 3093:0.038461538 3153:0.11538462 3519:0.73076923 4254:0.038461538 
2500 2124:0.045454545 3093:0.045454545 3904:0.22727273 
2500 3282:1 
2500 1641:0.10526316 2879:0.60526316 3410:0.10526316 3654:0.10526316 
2500 911:0.086956522 1115:0.043478261 1430:0.086956522 2452:0.086956522 2905:0.043478261 2945:0.086956522 3093:0.17391304 4206:0.043478261 
2500 138:0.071428571 597:0.035714286 1194:0.071428571 2341:0.071428571 3145:0.035714286 3297:0.071428571 3774:0.071428571 4055:0.16071429 4246:0.071428571 
2500 2468:0.22222222 2860:0.22222222 4206:0.11111111 
2500 635:0.26666667 
2500 3994:0.375 
276.516659307211 760:0.5 1988:0.029411765 2544:0.17647059 
620.42403247066886 3032:1 3402:0.11111111 
2500 923:0.16 939:0.04 2744:0.12 4036:0.04 
590.24134740530235 1641:0.083333333 1731:0.083333333 3297:0.16666667 3532:0.083333333 4333:1 4352:0.083333333 
2500 787:0.42857143 
2500 151:0.068965517 1164:0.034482759 1486:0.15517241 2620:0.068965517 
2500 1623:0.33333333 2109:0.83333333 
2500 1828:0.10526316 3513:0.10526316 3703:0.52631579 
2500 168:0.54545455 865:0.18181818 2207:0.090909091 
2500 
2500 289:0.15789474 824:0.1754386 1757:0.052631579 
2500 393:0.05 1293:0.15 1676:0.05 2124:0.1 
2500 271:0.043478261 381:0.13043478 1633:0.086956522 2460:0.43478261 3093:0.043478261 3597:0.086956522 4036:0.043478261 
2500 740:0.090909091 849:0.045454545 1308:0.090909091 1676:0.045454545 1688:0.045454545 1799:0.045454545 2124:0.045454545 4308:0.045454545 
2500 636:0.16666667 1735:0.055555556 2024:0.055555556 3043:0.055555556 3208:0.11111111 3370:0.055555556 3976:0.055555556 
2500 428:0.15384615 1308:0.15384615 2343:0.23076923 3093:0.076923077 3682:0.15384615 
2500 220:1 
2500 120:0.34782609 1123:0.17391304 3093:0.043478261 3779:0.043478261 3883:0.086956522 4357:0.043478261 
2500 1641:0.11111111 2342:0.11111111 
2500 1641:0.083333333 2410:0.083333333 
2500 1641:0.066666667 2072:0.13333333 2124:0.066666667 3219:0.2 
2500 
2500 
2500 
2500 1094:0.22222222 1667:0.22222222 4036:0.11111111 
2500 2024:0.1 4064:0.4 
2500 490:0.39130435 1641:0.043478261 2544:0.17391304 
2500 2651:0.14285714 
2500 898:0.65625 944:0.03125 1325:0.0625 1350:0.03125 1861:0.03125 2392:0.03125 2816:0.0625 2928:0.03125 4352:0.03125 
2500 
1253.0020165981944 1688:0.125 2317:0.125 2494:0.25 4060:0.125 4352:0.125 
2500 503:0.37209302 1128:0.023255814 1308:0.046511628 1991:0.13953488 2544:0.046511628 3905:0.046511628 3909:0.20930233 4352:0.023255814 
2500 1194:0.095238095 1676:0.047619048 3597:0.095238095 4047:0.19047619 
2500 1194:0.1 1526:0.2 1712:0.05 1799:0.05 2124:0.05 2664:0.2 
2500 4321:0.11111111 
2500 
2500 776:0.076923077 1676:0.038461538 1735:0.038461538 3467:0.30769231 
2500 1532:0.03125 2662:0.0625 2705:0.03125 2835:0.125 3018:0.1875 3837:0.03125 4259:0.15625 4352:0.03125 
2500 
2500 1035:0.2 3798:0.13333333 
2500 693:0.33333333 
2500 250:0.20512821 543:0.15384615 638:0.11538462 815:0.076923077 1287:0.80769231 1308:0.076923077 1594:0.076923077 1735:0.038461538 2088:0.23076923 2321:0.11538462 2324:0.23076923 2740:0.19230769 3597:0.076923077 
2500 2124:0.25 3270:0.5 
2500 206:0.10344828 1310:0.068965517 1532:0.034482759 2544:0.068965517 2564:0.13793103 3318:0.10344828 3976:0.034482759 4352:0.034482759 
2500 278:0.090909091 2905:0.090909091 3477:0.18181818 3721:0.18181818 3883:0.18181818 
2500 1115:0.086956522 1139:0.13043478 
2500 240:0.09375 563:0.140625 597:0.03125 835:0.09375 1430:0.03125 2396:0.09375 2742:0.0625 3703:0.3125 
2500 1641:0.15 1676:0.05 
2500 1641:0.1 2325:0.5 
2500 376:0.125 
2500 220:0.05 1924:0.15 1988:0.05 2156:0.15 3093:0.05 
2500 549:0.11764706 2124:0.058823529 
1646.2713050115801 1053:0.047619048 1272:0.11904762 1544:0.047619048 1933:0.85714286 2494:0.095238095 4352:0.047619048 
2500 
2500 601:0.26923077 1073:0.038461538 1676:0.038461538 3219:0.11538462 3657:0.30769231 3894:0.076923077 4308:0.038461538 
2500 206:0.088235294 271:0.029411765 536:0.11764706 1053:0.029411765 1098:0.11764706 1532:0.058823529 1633:0.058823529 1641:0.029411765 3145:0.029411765 3772:0.058823529 3870:0.058823529 4281:0.029411765 
2500 1641:0.058823529 1712:0.058823529 1809:0.058823529 1958:0.11764706 
2500 
2500 1090:0.5 3870:0.25 
2500 271:0.090909091 1556:0.3030303 1891:0.090909091 2724:0.090909091 
2500 1891:0.1 2581:0.1 2892:0.1 3925:0.2 4036:0.1 
2500 
2500 330:0.023255814 733:0.046511628 1470:0.046511628 1676:0.023255814 2853:0.18604651 3410:0.093023256 3870:0.023255814 4206:0.023255814 4262:0.069767442 4347:0.023255814 
2500 939:0.035714286 1641:0.071428571 3043:0.035714286 3480:0.071428571 
2500 
2500 
2500 1:0.75 
2500 
2500 1470:0.33333333 
2500 1094:0.2 3870:0.1 
2500 278:0.058823529 992:0.058823529 4242:0.058823529 
2500 1688:0.5 
2500 330:0.16666667 2651:0.16666667 
2500 4353:0.4 
2500 1641:0.038461538 2100:0.038461538 2594:0.076923077 3093:0.038461538 4293:0.038461538 
2500 
2500 278:0.032258065 2124:0.064516129 3976:0.032258065 
2500 
2500 910:0.25 1641:0.05 1711:0.25 1976:0.1 2436:0.7 2622:0.05 3552:0.05 
2500 
2500 912:0.1 1552:0.26666667 1676:0.033333333 1809:0.033333333 2719:0.13333333 3826:0.066666667 
2500 537:0.14285714 2410:0.14285714 
2500 978:0.14814815 1273:0.037037037 1366:0.074074074 1641:0.037037037 1676:0.037037037 2997:0.18518519 4217:0.037037037 
2500 294:0.090909091 919:0.13636364 939:0.045454545 1053:0.045454545 1666:0.045454545 1676:0.045454545 2748:0.13636364 3323:0.090909091 
2500 617:0.3 2100:0.1 2831:0.2 
2500 693:0.090909091 1308:0.18181818 1364:0.090909091 2321:0.27272727 3093:0.090909091 
2500 514:0.047619048 843:0.047619048 964:0.047619048 1544:0.047619048 1676:0.047619048 2581:0.095238095 3290:0.095238095 3402:0.047619048 4353:0.095238095 
2500 
2500 2581:0.11111111 4032:0.77777778 4331:0.44444444 
2500 1115:0.032258065 2945:0.064516129 
2500 587:0.11538462 1430:0.038461538 1881:0.038461538 1891:0.038461538 2100:0.038461538 2892:0.076923077 3415:0.10769231 
2500 433:0.2 2441:0.1 
2500 
2500 
2500 711:0.22222222 3150:1 
2500 536:0.090909091 1676:0.045454545 1991:0.090909091 2001:0.045454545 2742:0.090909091 3093:0.045454545 3415:0.12727273 3546:0.090909091 
2500 364:1 
1356.7005654890961 1804:0.2 4323:1 
2500 2083:0.085714286 2100:0.028571429 2319:0.11428571 3771:0.028571429 
2500 
2500 1194:0.074074074 1308:0.074074074 1610:0.074074074 1641:0.037037037 2207:0.037037037 2321:0.11111111 2594:0.037037037 2923:0.11111111 2975:0.037037037 3015:0.037037037 3370:0.037037037 3964:0.14814815 4036:0.037037037 
2500 
2500 
2500 1842:0.11111111 2124:0.11111111 3093:0.11111111 4246:0.22222222 
2500 1041:0.058823529 1246:0.088235294 1366:0.058823529 1414:0.088235294 1641:0.029411765 1711:0.14705882 1976:0.058823529 2341:0.058823529 2999:0.088235294 4352:0.029411765 
2500 
2500 444:0.08 623:0.08 1676:0.04 2636:0.08 4179:0.12 4206:0.04 
2500 2001:0.055555556 2066:0.055555556 2100:0.055555556 2917:0.16666667 4034:0.055555556 
2500 3844:0.4 
2500 138:0.28571429 
2500 626:0.13333333 1988:0.46666667 
2500 72:0.034482759 1403:0.10344828 2100:0.034482759 2658:0.10344828 3293:0.034482759 3654:0.068965517 4036:0.034482759 
2500 1641:0.071428571 1676:0.071428571 2654:0.071428571 4293:0.071428571 
587.70658189321841 2100:0.125 3419:0.5 
2500 
2500 1608:0.2 
2500 1164:0.066666667 1246:0.2 1308:0.13333333 2100:0.066666667 
2500 
2500 376:0.13333333 1809:0.066666667 3379:0.13333333 4027:0.2 
2500 257:0.25714286 689:0.028571429 1273:0.028571429 1676:0.028571429 1735:0.028571429 2303:0.057142857 3798:0.11428571 
2500 294:0.30769231 1641:0.076923077 2691:0.15384615 3131:0.15384615 3353:0.23076923 3935:0.076923077 
2500 981:0.2 1115:0.022222222 1745:0.13333333 2083:0.2 2544:0.044444444 2594:0.022222222 3025:0.13333333 3905:0.044444444 3909:0.066666667 4359:0.066666667 
2500 1958:0.064516129 2705:0.032258065 3458:0.25806452 3640:0.032258065 4305:1 
2500 
2500 1194:0.1 1676:0.05 2392:0.05 4064:0.1 4074:0.25 4184:0.05 
2500 1809:0.5 
2500 910:0.35714286 2011:0.071428571 2083:0.21428571 2651:0.071428571 2892:0.071428571 4386:0.32142857 
2500 1988:0.076923077 2705:0.076923077 3043:0.15384615 
1425.1803460752235 1053:0.045454545 1115:0.045454545 1331:1 1735:0.045454545 3994:0.13636364 
2500 2719:0.23529412 2845:0.058823529 2961:0.11764706 3509:0.41176471 4331:0.23529412 
2500 1194:0.054054054 1676:0.027027027 2024:0.027027027 2742:0.10810811 4149:0.10810811 
2500 1115:0.083333333 1293:0.25 1323:0.25 3508:0.41666667 
2500 1439:0.15 1633:0.25 3924:0.125 4352:0.0625 4415:0.25 
2500 9:0.047619048 1676:0.047619048 2124:0.047619048 2652:0.095238095 2654:0.047619048 
2500 895:0.041666667 2124:0.041666667 2717:0.29166667 2851:0.041666667 
2500 72:0.33333333 852:0.33333333 3567:0.33333333 
2500 849:0.04 1029:0.04 1115:0.04 2100:0.04 2124:0.04 2693:0.16 3976:0.04 
2500 1676:0.024390244 2581:0.024390244 2622:0.2195122 3771:0.024390244 
2500 2892:0.16666667 3129:0.16666667 
2500 1364:0.16666667 
2500 535:0.083333333 1300:0.083333333 1735:0.041666667 1881:0.041666667 2342:0.041666667 2892:0.041666667 2935:0.16666667 3533:0.041666667 4064:0.083333333 4293:0.041666667 
2500 1308:0.08 1430:0.04 1544:0.04 2124:0.04 2159:0.12 2321:0.12 2680:0.04 3236:0.08 3928:0.23428571 
2500 537:0.028571429 1115:0.028571429 3832:0.11428571 
2500 1663:0.85714286 
1259.5269183441958 1521:1 1610:0.28571429 
2500 1676:0.025 2439:0.325 3421:0.05 4226:0.1 
2500 4254:0.33333333 
2500 1641:0.1 2892:0.1 2935:0.4 
2500 294:0.058823529 564:0.17647059 1164:0.058823529 1641:0.058823529 2100:0.029411765 2851:0.029411765 3043:0.029411765 3523:0.058823529 
2500 868:0.22222222 1641:0.083333333 
2500 3463:0.5 3640:0.25 4173:0.25 
2500 1123:0.2 1429:0.7 1523:0.5 
2500 1676:0.052631579 1729:0.21052632 3401:0.15789474 3976:0.052631579 
2500 1988:0.16666667 2851:0.16666667 
2500 505:0.23076923 
2500 
2500 768:0.25925926 1430:0.037037037 1633:0.074074074 
2500 703:0.1 4352:0.1 
2500 
2500 1128:0.068965517 1712:0.034482759 1735:0.034482759 2742:0.068965517 2892:0.034482759 3274:0.10344828 3677:0.4137931 4352:0.034482759 
2500 1157:0.70588235 1641:0.058823529 2788:0.11764706 3788:0.11764706 4216:0.29411765 
2500 404:0.083333333 1123:0.16666667 2391:0.16666667 4034:0.083333333 
2500 
2500 1804:0.5 
2500 824:0.13888889 1443:0.125 1676:0.041666667 2187:0.083333333 2451:0.083333333 2680:0.041666667 3093:0.083333333 
2500 1641:0.066666667 3771:0.066666667 3935:0.066666667 
2500 2983:0.29545455 4036:0.045454545 4352:0.045454545 
2500 294:0.36363636 1115:0.045454545 1881:0.045454545 1891:0.045454545 2666:0.18181818 
2500 961:0.25 1532:0.0625 2187:0.0625 2636:0.125 
2500 
2500 355:0.05 376:0.05 549:0.1 1229:0.1 
2500 1430:0.083333333 1988:0.083333333 3533:0.083333333 4293:0.083333333 
2500 2892:0.083333333 4254:0.083333333 
2500 
2500 2816:0.4 
2500 11:0.052631579 1024:0.10526316 1257:0.065789474 2001:0.026315789 2441:0.026315789 2577:0.078947368 3812:0.078947368 4401:0.28947368 
2500 1641:0.029411765 1804:0.029411765 4047:0.23529412 
2500 2124:0.043478261 2569:0.86956522 
2500 1194:0.14285714 1983:0.21428571 
2500 3806:0.18181818 4254:0.090909091 
2500 2409:0.45 2573:0.05 2905:0.05 
2500 1208:0.0625 1275:0.0625 1364:0.03125 1430:0.09375 2202:0.09375 3093:0.03125 
2500 3708:0.5 
2500 148:0.057971014 189:0.086956522 1115:0.043478261 2303:0.086956522 2544:0.086956522 2945:0.086956522 2957:0.13043478 3379:0.26086957 
2500 939:0.05 1292:0.05 2024:0.05 2202:0.15 3756:0.1 4352:0.05 
2500 
2500 1102:0.66666667 
2500 
2500 2100:0.066666667 4252:0.33333333 
2500 320:0.076923077 1152:0.076923077 1731:0.076923077 1883:0.076923077 4352:0.076923077 
2500 1062:0.41666667 1532:0.16666667 3077:0.24166667 
2500 1735:0.2 3015:0.2 
2500 
2500 3093:0.095238095 4352:0.047619048 
2500 895:0.027027027 1641:0.081081081 1676:0.027027027 1688:0.054054054 1728:0.40540541 2124:0.027027027 
2500 1641:0.037037037 1943:0.037037037 2124:0.037037037 3193:0.11111111 3570:1 4275:0.074074074 
2500 513:0.11111111 1443:0.16666667 2024:0.055555556 2594:0.055555556 2892:0.055555556 4150:0.055555556 
2500 128:0.14285714 1676:0.071428571 
2500 1247:0.18181818 2410:0.090909091 
2500 220:0.058823529 264:0.058823529 824:0.19607843 1128:0.058823529 2636:0.11764706 2892:0.058823529 3093:0.058823529 
2500 1556:0.23809524 
2500 1641:0.038461538 2100:0.076923077 2124:0.038461538 
2500 
2500 1633:0.11111111 4392:0.16666667 
2500 2124:0.125 3467:1 
2500 
2500 
2500 117:0.75609756 1670:0.024390244 2691:0.024390244 3077:0.035365854 3093:0.024390244 
2500 
2500 867:0.13157895 2034:0.052631579 2310:0.36842105 4007:0.13157895 4353:0.10526316 
2500 404:0.071428571 1115:0.035714286 1544:0.071428571 1556:0.11904762 1641:0.035714286 1891:0.035714286 2341:0.071428571 2892:0.035714286 4064:0.071428571 
2500 1544:0.047619048 2100:0.095238095 2452:0.095238095 
2500 1062:0.20833333 2100:0.083333333 2168:0.27083333 
2500 495:0.2 1292:0.1 1592:0.1 
2500 3398:0.25 3478:0.1875 3758:0.125 
2500 397:0.31578947 495:0.052631579 961:0.10526316 1273:0.026315789 1367:0.052631579 1430:0.026315789 1886:0.10526316 2159:0.078947368 4352:0.026315789 
2500 3093:0.33333333 
2500 
2500 1621:0.038461538 1641:0.038461538 1676:0.038461538 4227:0.23076923 
2500 
2500 852:0.047619048 1631:0.14285714 1676:0.047619048 
2500 
2500 1842:0.11111111 4237:1 4347:0.11111111 
2500 499:0.26086957 537:0.043478261 3105:0.065217391 3186:0.043478261 
2500 3772:0.11111111 4352:0.055555556 
2500 164:0.15789474 2905:0.052631579 
2500 94:0.125 699:1 3820:0.28125 
2500 230:0.090909091 1485:0.13636364 1641:0.060606061 2086:0.18181818 2100:0.03030303 2147:0.12121212 2290:0.21212121 2892:0.03030303 3649:0.090909091 3856:0.84848485 
2500 
2500 
2500 413:0.25 2124:0.083333333 2434:0.16666667 3572:0.16666667 
2500 513:0.28571429 3788:0.28571429 4308:0.14285714 
2500 919:0.46153846 1430:0.15384615 2100:0.076923077 2698:0.15384615 
2500 591:0.071428571 1246:0.21428571 1308:0.14285714 3567:0.14285714 4226:0.28571429 
2500 24:0.048387097 696:0.032258065 857:0.064516129 912:0.096774194 1129:0.072580645 1443:0.096774194 2762:0.12903226 3243:0.25806452 3419:0.12903226 3552:0.032258065 4036:0.032258065 4141:0.51612903 4352:0.032258065 
2500 
2500 72:0.029411765 981:0.26470588 1024:0.23529412 1091:0.29411765 2716:0.14705882 2742:0.058823529 3419:0.11764706 4098:0.14705882 
2500 404:0.068965517 1115:0.034482759 2063:0.34482759 2209:0.034482759 3978:0.068965517 
1404.0752434689364 320:0.047619048 981:0.14285714 1676:0.047619048 1916:0.33333333 2406:0.14285714 2438:0.047619048 2925:0.28571429 3835:0.57142857 3883:0.095238095 4320:0.14285714 4396:1 
2500 1194:0.13333333 1430:0.066666667 1544:0.066666667 
2500 
2500 1152:0.076923077 1676:0.076923077 2066:0.076923077 3576:0.11538462 
2500 3093:0.2 
2500 2130:0.6 
2500 852:0.052631579 1735:0.052631579 1950:0.052631579 2156:0.15789474 2430:0.15789474 2604:0.21052632 2680:0.052631579 4328:0.10526316 
2500 72:0.029411765 232:0.23529412 320:0.029411765 690:0.088235294 1036:0.17647059 1128:0.029411765 2263:0.088235294 4340:0.29411765 
2500 3682:0.058823529 
2500 1514:0.33333333 
2500 
2500 
2500 
2500 
2500 964:0.14285714 3774:0.071428571 
2500 549:0.24242424 1641:0.060606061 2124:0.03030303 
1959.4118125018331 2544:0.5 
2500 144:0.15 2544:0.1 4298:0.1 4308:0.05 
2500 1676:0.058823529 2906:0.058823529 2925:0.11764706 3402:0.058823529 
2500 
2500 3029:1 
2500 597:0.2 
2500 1544:0.043478261 1676:0.043478261 3402:0.086956522 3682:0.086956522 
2500 1848:0.25 3131:0.083333333 
2500 885:0.75 1641:0.25 2124:0.125 3093:0.125 
2500 26:0.40909091 2124:0.045454545 2905:0.045454545 3385:0.045454545 3402:0.045454545 
2500 1156:0.16666667 1676:0.083333333 3987:0.083333333 
2500 1419:0.25 
2500 536:0.11111111 1633:0.11111111 2563:0.27777778 
2500 2860:0.18181818 
2500 670:0.054054054 1990:0.13513514 2326:0.027027027 2396:0.081081081 2705:0.027027027 3093:0.027027027 3302:0.054054054 3909:0.081081081 4207:0.18918919 4226:0.10810811 
2500 689:0.035714286 895:0.035714286 1292:0.071428571 2742:0.071428571 3597:0.071428571 3882:0.10714286 
1637.9588562831138 872:0.078431373 1988:0.058823529 2124:0.058823529 3257:0.88235294 3481:0.17647059 4036:0.058823529 
2500 883:0.42857143 4308:0.14285714 
2500 1484:0.21052632 1735:0.052631579 2124:0.052631579 2207:0.052631579 2252:0.10526316 2342:0.052631579 3406:0.26315789 
2500 1115:0.038461538 2197:0.23076923 3049:0.11538462 
2500 2339:0.27272727 3402:0.27272727 3755:0.090909091 
2500 64:0.18181818 939:0.45454545 1641:0.090909091 3576:0.13636364 
2500 733:0.11764706 2842:0.52941176 
2500 264:0.037037037 486:0.037037037 843:0.037037037 978:0.074074074 1544:0.037037037 1716:0.22222222 2972:0.074074074 
2500 
2500 
2500 338:0.055555556 635:0.22222222 2066:0.055555556 2494:0.11111111 3131:0.055555556 4352:0.055555556 
2500 
2500 1641:0.05 1676:0.05 1735:0.05 3207:0.125 
1724.4406882903997 33:0.1025641 251:1 318:0.025641026 737:0.1025641 939:0.076923077 1281:0.20512821 1512:0.025641026 1716:0.15384615 1826:0.12820513 2124:0.025641026 2286:0.051282051 2511:0.025641026 2666:0.1025641 3237:0.051282051 3823:0.1025641 3991:0.076923077 
2500 72:0.076923077 486:0.076923077 2073:0.076923077 
2500 
2500 518:0.22222222 
2500 1364:0.04 1641:0.04 1676:0.04 3363:0.04 3476:0.32 3883:0.08 
2500 9:0.041666667 28:0.0625 205:0.16666667 1581:0.16666667 1676:0.041666667 2654:0.083333333 3295:0.041666667 4276:0.5 
2500 1641:0.071428571 1676:0.071428571 
2500 347:0.21428571 387:0.071428571 1641:0.071428571 1755:0.14285714 1851:0.14285714 3826:0.14285714 4206:0.071428571 
2500 1762:0.53846154 1786:0.30769231 3093:0.076923077 
2500 1712:0.11111111 2100:0.11111111 3001:1 
1717.3959473135565 406:1 3644:0.66666667 
2500 1988:0.25 
2500 320:0.041666667 1152:0.041666667 1676:0.041666667 1734:0.33333333 
2500 3402:0.22222222 
2500 3043:0.1 3994:0.3 
1365.1466631552869 780:1 1363:0.125 1641:0.083333333 1676:0.041666667 
2500 1641:0.16666667 2672:0.16666667 3572:0.33333333 
2500 306:0.3 2419:0.4 3179:0.2 
2500 433:0.045454545 486:0.022727273 961:0.27272727 1194:0.045454545 1799:0.022727273 2636:0.045454545 3043:0.022727273 3093:0.045454545 3719:0.045454545 4352:0.022727273 
2500 321:0.052631579 387:0.052631579 2132:0.78947368 2299:0.10526316 3552:0.052631579 4106:0.21052632 4223:0.052631579 4320:0.15789474 
2500 
2500 1633:0.11764706 2024:0.058823529 2494:0.11764706 2594:0.058823529 2918:0.17647059 3597:0.11764706 4221:0.058823529 
2500 1152:0.33333333 2430:1 
2500 1128:0.027777778 2100:0.027777778 2468:0.055555556 4121:0.80555556 
2500 206:0.23076923 
2500 513:0.076923077 693:0.038461538 1430:0.038461538 2124:0.076923077 3798:0.076923077 
2500 1641:0.090909091 2100:0.090909091 
2500 296:0.043478261 1641:0.043478261 2034:0.043478261 2445:0.043478261 
2500 693:0.055555556 1137:0.055555556 1676:0.055555556 1712:0.055555556 3987:0.055555556 
1445.3784481202699 666:0.10810811 849:0.081081081 961:0.10810811 1273:0.081081081 1430:0.081081081 2283:0.21621622 2851:0.054054054 3786:0.054054054 4352:0.027027027 
2500 296:0.03030303 565:0.03030303 1273:0.060606061 1641:0.090909091 2124:0.03030303 2519:0.03030303 2999:0.090909091 
2500 1828:0.5 
2500 72:0.090909091 271:0.045454545 874:0.13636364 1544:0.045454545 2892:0.090909091 2905:0.045454545 2928:0.045454545 3779:0.045454545 4064:0.090909091 
2500 2112:0.058823529 3870:0.058823529 
2500 72:0.033333333 464:0.033333333 1735:0.033333333 1737:0.23333333 2202:0.1 2341:0.066666667 4036:0.033333333 4241:1 
1771.6278773204208 1128:0.04 1641:0.08 1676:0.04 1729:0.16 2073:0.04 3015:0.04 3772:0.08 3984:0.32 4206:0.04 
2500 
2500 2724:0.2 4135:0.2 
2500 1415:0.42857143 1641:0.047619048 1676:0.047619048 2124:0.047619048 
2500 2124:0.2 3866:0.2 
2500 4352:0.071428571 
2500 
2500 1543:0.16 1610:0.08 1745:0.12 1915:0.12 2083:0.24 2892:0.04 3533:0.04 3909:0.12 
2500 549:0.057142857 563:0.25714286 1641:0.028571429 1676:0.028571429 2124:0.028571429 2573:0.057142857 
2500 1334:0.18181818 2400:0.11363636 2594:0.022727273 3533:0.022727273 3991:0.068181818 
2500 1616:0.2 1667:0.4 3402:0.2 3948:0.4 
2500 
2500 463:0.328125 895:0.03125 921:0.15625 1535:0.1875 1641:0.0625 1667:0.0625 1676:0.03125 
2500 433:0.2 1641:0.1 
2500 3363:0.33333333 
2500 693:0.043478261 2735:0.086956522 4352:0.043478261 
2500 1292:0.058823529 1458:0.23529412 2112:0.058823529 
2500 1676:0.05 1712:0.05 2124:0.05 2581:0.05 2654:0.05 4327:0.05 
2500 1443:0.125 2124:0.041666667 2704:0.041666667 3093:0.041666667 3640:0.041666667 
2500 397:0.44444444 1070:0.16666667 1129:0.25 3049:0.33333333 3533:0.11111111 
2500 486:0.090909091 1988:0.27272727 3242:0.18181818 
2500 2100:0.037037037 2860:0.22222222 3036:0.074074074 3043:0.037037037 3425:0.074074074 3640:0.037037037 4133:0.074074074 4352:0.037037037 
2500 1281:0.125 1589:0.03125 1641:0.03125 1735:0.03125 2303:0.0625 2544:0.1875 3644:0.0625 4349:0.09375 
2500 55:0.058823529 1430:0.029411765 1676:0.029411765 2383:0.088235294 2642:0.058823529 3779:0.029411765 
2500 2001:0.25 
2500 693:0.14285714 4224:0.14285714 
2500 853:0.071428571 1581:0.28571429 
2500 
2500 72:0.23076923 294:0.15384615 447:0.15384615 3127:0.15384615 
2500 355:0.058823529 1128:0.058823529 2668:0.11764706 4352:0.058823529 
2055.808042623386 2100:0.066666667 2356:0.62222222 2742:0.13333333 3342:0.4 4352:0.066666667 
2500 1883:0.022222222 2100:0.022222222 2983:0.14444444 3093:0.022222222 3756:0.044444444 3961:0.044444444 4328:0.044444444 
2500 
2500 1162:0.57142857 1300:0.047619048 1633:0.28571429 2149:0.095238095 3402:0.095238095 
2500 1320:0.375 2430:0.375 3413:0.5 
2500 991:0.15789474 1712:0.052631579 3870:0.052631579 
2500 
2500 849:0.5 
2500 1641:0.045454545 1676:0.045454545 2202:0.13636364 3169:0.18181818 3870:0.045454545 
2500 33:0.068965517 623:0.068965517 849:0.034482759 1152:0.034482759 1676:0.034482759 1886:0.13793103 4395:0.17241379 
2500 556:0.14814815 978:0.074074074 1070:0.055555556 2315:0.11111111 2410:0.037037037 3261:0.037037037 3441:0.037037037 4293:0.037037037 
2500 1532:0.13636364 1641:0.045454545 2594:0.045454545 2851:0.045454545 
2500 2005:1 3878:1 
2500 662:0.047619048 795:0.11904762 1676:0.095238095 1694:0.095238095 1720:0.047619048 1804:0.047619048 
2500 843:0.028571429 1641:0.11428571 
2500 1081:0.038461538 2256:0.076923077 3193:0.11538462 3290:0.076923077 
2500 1610:0.057142857 1988:0.028571429 2892:0.057142857 3233:0.17142857 3894:0.028571429 4293:0.028571429 
2500 
2500 11:0.16666667 597:0.083333333 843:0.083333333 2124:0.16666667 
2500 413:0.25 1292:0.083333333 1641:0.083333333 2124:0.083333333 2851:0.083333333 
2500 4409:0.6 
2500 
2500 1976:0.8 2704:0.2 
2500 1670:0.055555556 1877:0.16666667 1891:0.055555556 2668:0.11111111 2939:0.5 3897:0.14814815 4268:0.055555556 4347:0.055555556 
2500 1128:0.0625 1364:0.03125 
2500 486:0.5 
2500 513:0.28571429 2209:0.14285714 
2500 359:0.090909091 961:0.12121212 1115:0.060606061 1667:0.060606061 2582:0.060606061 2594:0.03030303 2672:0.03030303 3644:0.060606061 
2500 750:0.083333333 1641:0.083333333 3846:0.16666667 
2500 376:0.066666667 1641:0.066666667 3043:0.2 
2500 160:0.27586207 3379:0.068965517 
2500 347:0.13636364 1676:0.045454545 1809:0.045454545 2724:0.045454545 2749:0.090909091 3040:0.045454545 
2500 1115:0.11111111 
2500 376:0.066666667 1883:0.066666667 3774:0.066666667 3951:0.33333333 
2500 
2500 192:0.16216216 321:0.027027027 1128:0.027027027 1194:0.054054054 1755:0.054054054 1940:0.21621622 2033:0.27027027 2754:0.32432432 3002:0.10810811 3093:0.027027027 3327:0.59459459 3871:0.10810811 4352:0.027027027 
2500 55:0.074074074 321:0.037037037 912:0.11111111 1676:0.037037037 1842:0.037037037 1868:0.037037037 1962:0.14814815 2438:0.037037037 3228:0.21296296 4089:0.11111111 
2500 1118:0.096774194 1443:0.096774194 1544:0.032258065 2124:0.032258065 2851:0.032258065 3146:0.064516129 
2500 220:0.037037037 1676:0.037037037 2100:0.037037037 
2500 116:0.125 240:0.083333333 271:0.083333333 313:0.027777778 1245:0.16666667 1641:0.027777778 1891:0.027777778 2024:0.055555556 2124:0.027777778 2724:0.027777778 3597:0.055555556 3837:0.027777778 4036:0.027777778 4107:0.11111111 
2500 376:0.058823529 849:0.058823529 1641:0.11764706 1712:0.058823529 2333:0.11764706 
2500 1443:0.09375 1633:0.0625 1641:0.0625 2716:0.03125 
2500 249:0.17391304 853:0.086956522 912:0.13043478 1102:0.17391304 2100:0.043478261 2651:0.043478261 3843:0.086956522 
2500 1688:0.25 
2500 
2500 355:0.058823529 1134:0.11764706 1748:0.25490196 4352:0.058823529 
2500 1712:0.045454545 1868:0.045454545 2195:0.36363636 3727:0.90909091 
2500 1194:0.2 1406:1 2073:0.1 2392:0.1 
2500 
2500 359:0.15789474 433:0.10526316 1544:0.052631579 1604:0.26315789 1688:0.052631579 2636:0.10526316 4352:0.052631579 
2500 220:0.025641026 1103:0.025641026 1364:0.025641026 1366:0.051282051 1735:0.025641026 2100:0.051282051 2816:0.051282051 3071:0.1025641 3786:0.051282051 3909:0.076923077 
2500 720:0.15384615 923:0.15384615 1641:0.038461538 1688:0.038461538 3214:0.11538462 3914:0.23076923 
2500 1115:0.1 1712:0.1 3353:0.3 
2500 1430:0.083333333 2414:0.16666667 4293:0.083333333 4347:0.083333333 4352:0.083333333 
2500 939:0.5 
2500 486:0.025 1676:0.025 1701:0.025 2441:0.05 2585:0.1 2594:0.025 2693:0.1 3477:0.05 3533:0.025 4248:0.05 4415:0.1 
2500 597:0.041666667 1641:0.041666667 3093:0.125 3370:0.041666667 4328:0.083333333 
2500 2494:1 
2500 1712:0.25 4328:0.25 
2500 
2500 549:0.66666667 
2500 895:0.043478261 1414:0.13043478 1641:0.043478261 1676:0.043478261 2583:0.086956522 3837:0.043478261 
2500 11:0.074074074 1292:0.037037037 1676:0.074074074 2523:0.074074074 
2500 242:0.047619048 296:0.047619048 638:0.14285714 1080:0.14285714 4293:0.047619048 
2500 278:0.035714286 2124:0.071428571 3156:0.10714286 3552:0.035714286 
2500 597:0.22222222 2594:0.11111111 
2500 526:0.076923077 1676:0.076923077 
2500 278:0.14285714 
2500 3043:0.33333333 
2500 
2500 164:0.16666667 376:0.027777778 1115:0.027777778 1453:0.083333333 1641:0.027777778 1958:0.055555556 2082:0.083333333 2544:0.16666667 3707:0.083333333 
2500 536:0.10526316 1109:0.21052632 1441:0.052631579 3533:0.052631579 3761:0.10526316 4232:0.52631579 4352:0.052631579 
2500 1641:0.15 1676:0.05 
2500 1122:0.23809524 1544:0.047619048 1590:0.52380952 2498:0.047619048 
2500 61:0.23529412 1717:0.058823529 3556:0.19117647 
2500 72:0.0625 849:0.1875 2100:0.0625 4017:0.15625 
2500 
2500 628:0.2 1641:0.05 4352:0.05 
2500 3363:0.14285714 4184:0.14285714 
2500 732:0.16129032 1621:0.032258065 1641:0.032258065 1676:0.032258065 1828:0.064516129 2124:0.064516129 3093:0.032258065 3293:0.032258065 3825:0.12903226 4352:0.032258065 
2500 11:0.10526316 1194:0.10526316 1820:0.10526316 2831:0.10526316 2969:0.15789474 4293:0.052631579 
2500 14:0.11764706 355:0.058823529 865:0.11764706 1676:0.058823529 4217:0.058823529 
2500 1250:0.071428571 
2500 293:0.083333333 1991:0.16666667 2544:0.16666667 2938:0.11111111 4352:0.027777778 
2500 820:0.068965517 1115:0.034482759 1308:0.27586207 1641:0.068965517 2544:0.068965517 3237:0.068965517 
2500 
2500 116:0.15517241 744:0.068965517 1514:0.034482759 2124:0.034482759 2322:0.10344828 2529:0.10344828 
2500 2724:0.5 
2500 1088:0.068965517 3505:0.068965517 4109:0.34482759 
2500 2082:0.11111111 2100:0.11111111 
2500 376:0.058823529 1273:0.058823529 2851:0.058823529 4058:0.11764706 
2500 2124:0.25 4284:0.75 
2500 
2500 486:0.076923077 724:0.076923077 
2500 1035:1 
2500 82:0.1875 2124:0.03125 2724:0.03125 4352:0.03125 
2500 565:0.047619048 600:0.095238095 2149:0.095238095 3509:0.33333333 3597:0.095238095 3609:0.047619048 4232:0.95238095 
2500 770:0.08 1676:0.04 2118:0.12 2377:0.12 3597:0.08 3772:0.08 
